tree
version=v3
num_class=3
num_tree_per_iteration=3
label_index=0
max_feature_idx=12
objective=multiclass num_class:3
feature_names=alcohol malic_acid ash alcalinity_of_ash magnesium total_phenols flavanoids nonflavanoid_phenols proanthocyanins color_intensity hue od280/od315_of_diluted_wines proline
feature_infos=[11.029999999999999:14.83] [0.73999999999999999:5.7999999999999998] [1.3600000000000001:3.23] [10.6:30] [70:139] [1.1000000000000001:3.8799999999999999] [0.47999999999999998:5.0800000000000001] [0.17000000000000001:0.66000000000000003] [0.40999999999999998:3.5800000000000001] [1.74:10.68] [0.55000000000000004:1.71] [1.29:4] [278:1680]
tree_sizes=523 525 324 531 529 434 530 530 436 532 531 436 533 534 437 531 532 436 534 531 437 530 535 436 533 531 436 533 535 435 531 532 435 533 533 436 534 533 436 533 532 436 532 532 435 533 533 432 533 532 434 533 530 435 534 530 435 535 535 434 536 532 433 533 532 436 537 533 433 534 532 436 537 529 434 535 532 436 531 533 434 534 533 439 535 532 436 533 534 438 534 535 435 535 531 437 536 517 439 535 537 437 537 533 440 537 533 438 536 519 438 536 535 437 538 534 438 538 432 439 537 533 439 536 533 439 537 537 438 537 536 438 536 519 438 538 535 438 437 537 439 537 536 439 538 432 438 535 536 437 537 534 438 437 534 437 533 537 439 537 536 535 538 536 537 533 539 537 437 538 437 538 535 438 436 533 538 540 433 435 539 536 537 438 537 540 539 535 539 437 540 540 540 538 436 439 534 538 539 431 436 439 539 440 439 541 436 540 541 540 534 537 541 435 540 541 540 537 439 538 541 440 541 535 436 435 540 441 541 534 539 541 539 439 539 521 437 436 539 441 541 523 544 542 435 439 436 542 438 543 522 441 540 536 545 437 524 436 543 539 441 544 523 439 436 541 442 542 523 545 543 543 441 544 537 439 438 540 442 543 521 439 544 523 442 545 535 544 438 544 441 544 527 442 543 540 442 542 526 544

Tree=0
num_leaves=4
num_cat=0
split_feature=12 0 0
split_gain=49.2194 3.31474 0.320961
threshold=755.00000000000011 13.505000000000001 13.165000000000001
decision_type=2 2 2
left_child=2 -2 -1
right_child=1 -3 -4
leaf_value=-1.0460288293106332 -0.96222526072152825 -0.91710026225047159 -1.0331359726046172
leaf_weight=27.45706382393837 9.3074792623519915 15.822714745998381 9.307479262351988
leaf_count=59 20 34 20
internal_value=0 1.07859 -0.737266
internal_weight=0 25.1302 36.7645
internal_count=133 54 79
shrinkage=1


Tree=1
num_leaves=4
num_cat=0
split_feature=9 12 4
split_gain=42.1822 3.68938 1.57527
threshold=3.9450000000000007 666.00000000000011 94.500000000000014
decision_type=2 2 2
left_child=2 -2 -1
right_child=1 -3 -4
leaf_value=-0.82747619386703986 -0.91206494097907931 -0.95187141020827437 -0.85857499795234848
leaf_weight=14.952343463897707 12.058341503143309 27.493018627166748 9.6466732025146467
leaf_count=31 25 57 20
internal_value=0 -0.639503 1.02822
internal_weight=0 39.5514 24.599
internal_count=133 82 51
shrinkage=1


Tree=2
num_leaves=2
num_cat=0
split_feature=6
split_gain=56.3978
threshold=1.2750000000000001
decision_type=2
left_child=-1
right_child=-2
leaf_value=-1.376356200574562 -1.5278896101652026
leaf_weight=11.878568947315214 34.587597817182541
leaf_count=34 99
internal_value=0
internal_weight=0
internal_count=133
shrinkage=1


Tree=3
num_leaves=4
num_cat=0
split_feature=12 0 6
split_gain=44.5873 2.77059 0.314036
threshold=755.00000000000011 13.505000000000001 2.2450000000000006
decision_type=2 2 2
left_child=2 -2 -1
right_child=1 -3 -4
leaf_value=-0.046300024536299146 0.034463580588282687 0.075344730520052125 -0.033437952314328778
leaf_weight=26.911888062953949 9.4170661270618456 16.294613689184189 9.1596781313419324
leaf_count=59 20 34 20
internal_value=0 1.0062 -0.717232
internal_weight=0 25.7117 36.0716
internal_count=133 54 79
shrinkage=0.06


Tree=4
num_leaves=4
num_cat=0
split_feature=9 12 6
split_gain=38.2404 3.4251 1.5019
threshold=3.9450000000000007 666.00000000000011 2.2450000000000006
decision_type=2 2 2
left_child=2 -2 -1
right_child=1 -3 -4
leaf_value=0.069812786588177897 -0.010428811260931006 -0.048910450894220574 0.039668152918277376
leaf_weight=15.190952748060228 12.033358573913572 27.031005948781967 9.7813204824924451
leaf_count=31 25 57 20
internal_value=0 -0.61761 0.966759
internal_weight=0 39.0644 24.9723
internal_count=133 82 51
shrinkage=0.06


Tree=5
num_leaves=3
num_cat=0
split_feature=6 9
split_gain=50.003 4.01094e-05
threshold=1.2750000000000001 3.9450000000000007
decision_type=2 2
left_child=-1 -2
right_child=1 -3
leaf_value=0.10118430611582528 -0.038262865866201985 -0.038394023754330465
leaf_weight=12.749053627252577 15.914077520370482 17.762674748897552
leaf_count=34 47 52
internal_value=0 -0.638867
internal_weight=0 33.6768
internal_count=133 99
shrinkage=0.06


Tree=6
num_leaves=4
num_cat=0
split_feature=12 3 0
split_gain=40.5689 2.36192 0.311352
threshold=755.00000000000011 18.250000000000004 13.165000000000001
decision_type=2 2 2
left_child=2 -2 -1
right_child=1 -3 -4
leaf_value=-0.045233224366163394 0.07150677646596508 0.034754377059325228 -0.032306016670863233
leaf_weight=26.330088913440704 15.57649412751198 10.564468592405317 8.9998496174812299
leaf_count=59 32 22 20
internal_value=0 0.944231 -0.699003
internal_weight=0 26.141 35.3299
internal_count=133 54 79
shrinkage=0.06


Tree=7
num_leaves=4
num_cat=0
split_feature=9 12 4
split_gain=34.9764 6.4345 0.00241298
threshold=3.4600000000000004 666.00000000000011 89.500000000000014
decision_type=2 2 2
left_child=2 -2 -1
right_child=1 -3 -4
leaf_value=0.065543630938651481 0.0029203857873773532 -0.045931558324159502 0.066867908345449867
leaf_weight=9.926620692014696 14.480104357004164 29.441524624824524 9.8868147730827314
leaf_count=20 30 63 20
internal_value=0 -0.4971 1.10341
internal_weight=0 43.9216 19.8134
internal_count=133 93 40
shrinkage=0.06


Tree=8
num_leaves=3
num_cat=0
split_feature=6 9
split_gain=44.7392 0.000137777
threshold=1.2750000000000001 3.9450000000000007
decision_type=2 2
left_child=-1 -2
right_child=1 -3
leaf_value=0.091798104198866304 -0.037808638235502116 -0.038055238861777307
leaf_weight=13.520487189292906 15.399991303682325 17.339911699295044
leaf_count=34 47 52
internal_value=0 -0.632321
internal_weight=0 32.7399
internal_count=133 99
shrinkage=0.06


Tree=9
num_leaves=4
num_cat=0
split_feature=12 0 0
split_gain=36.8752 2.1971 0.301253
threshold=755.00000000000011 13.505000000000001 13.165000000000001
decision_type=2 2 2
left_child=2 -2 -1
right_child=1 -3 -4
leaf_value=-0.044185838056809576 0.030368808786776676 0.066307008902330752 -0.031348173324667335
leaf_weight=25.669764965772629 9.6225519478321093 16.844094038009644 8.8490403294563276
leaf_count=59 20 34 20
internal_value=0 0.887348 -0.681581
internal_weight=0 26.4666 34.5188
internal_count=133 54 79
shrinkage=0.06


Tree=10
num_leaves=4
num_cat=0
split_feature=9 0 6
split_gain=32.1004 2.99815 1.21667
threshold=3.9450000000000007 13.165000000000001 2.2450000000000006
decision_type=2 2 2
left_child=2 -2 -1
right_child=1 -3 -4
leaf_value=0.062876014487857998 -0.010564850662906413 -0.046572612446895277 0.035909977712561061
leaf_weight=15.442987442016603 12.33113446831703 25.621027171611786 9.8750892579555494
leaf_count=31 26 56 20
internal_value=0 -0.581221 0.872636
internal_weight=0 37.9522 25.3181
internal_count=133 82 51
shrinkage=0.06


Tree=11
num_leaves=3
num_cat=0
split_feature=6 9
split_gain=40.5565 0.000229773
threshold=1.2750000000000001 3.8500000000000001
decision_type=2 2
left_child=-1 -2
right_child=1 -3
leaf_value=0.084490275566200104 -0.037391964269624552 -0.037716875009076667
leaf_weight=14.158432126045225 13.953125566244127 17.871938735246658
leaf_count=34 44 55
internal_value=0 -0.62624
internal_weight=0 31.8251
internal_count=133 99
shrinkage=0.06


Tree=12
num_leaves=4
num_cat=0
split_feature=12 3 4
split_gain=33.8557 1.93685 0.304604
threshold=755.00000000000011 18.250000000000004 100.50000000000001
decision_type=2 2 2
left_child=2 -2 -1
right_child=1 -3 -4
leaf_value=-0.043437435449583825 0.063786598304528555 0.030785211006544203 -0.030552785439070428
leaf_weight=24.708095520734787 15.917650878429415 10.709975600242613 9.015421122312544
leaf_count=58 32 22 21
internal_value=0 0.841884 -0.666549
internal_weight=0 26.6276 33.7235
internal_count=133 54 79
shrinkage=0.06


Tree=13
num_leaves=4
num_cat=0
split_feature=9 12 6
split_gain=29.3396 2.84822 1.13369
threshold=3.9450000000000007 666.00000000000011 2.2450000000000006
decision_type=2 2 2
left_child=2 -2 -1
right_child=1 -3 -4
leaf_value=0.059982631903148419 -0.0096268712322340674 -0.045184597166776405 0.033979134634139811
leaf_weight=15.455664515495302 11.918619304895399 25.376907974481583 9.9032416343688947
leaf_count=31 25 57 20
internal_value=0 -0.563689 0.830461
internal_weight=0 37.2955 25.3589
internal_count=133 82 51
shrinkage=0.06


Tree=14
num_leaves=3
num_cat=0
split_feature=6 9
split_gain=36.8146 0.000345881
threshold=1.2750000000000001 3.8500000000000001
decision_type=2 2
left_child=-1 -2
right_child=1 -3
leaf_value=0.078046144816768345 -0.036987683781485196 -0.037392635676537132
leaf_weight=14.738872140645979 13.476298004388811 17.393395453691483
leaf_count=34 44 55
internal_value=0 -0.620264
internal_weight=0 30.8697
internal_count=133 99
shrinkage=0.06


Tree=15
num_leaves=4
num_cat=0
split_feature=12 0 4
split_gain=31.0677 1.77064 0.300002
threshold=755.00000000000011 13.505000000000001 100.50000000000001
decision_type=2 2 2
left_child=2 -2 -1
right_child=1 -3 -4
leaf_value=-0.042606034768473619 0.027549820570964636 0.059668930699579133 -0.029676789205072759
leaf_weight=24.050516843795776 9.7102145552635211 16.989827960729599 8.8337163627147657
leaf_count=58 20 34 21
internal_value=0 0.799799 -0.652214
internal_weight=0 26.7 32.8842
internal_count=133 54 79
shrinkage=0.06


Tree=16
num_leaves=4
num_cat=0
split_feature=9 12 4
split_gain=27.063 5.44872 0.00425479
threshold=3.4600000000000004 666.00000000000011 89.500000000000014
decision_type=2 2 2
left_child=2 -2 -1
right_child=1 -3 -4
leaf_value=0.056810599864818408 0.002727590012244509 -0.04282889687318768 0.058565509410083358
leaf_weight=9.9529959857463854 14.358358502387999 27.655989676713943 9.941439360380171
leaf_count=20 30 63 20
internal_value=0 -0.454334 0.961459
internal_weight=0 42.0143 19.8944
internal_count=133 93 40
shrinkage=0.06


Tree=17
num_leaves=3
num_cat=0
split_feature=6 9
split_gain=33.6696 0.000498964
threshold=1.2750000000000001 3.8500000000000001
decision_type=2 2
left_child=-1 -2
right_child=1 -3
leaf_value=0.072730415563072345 -0.036601152706502042 -0.037095439787826812
leaf_weight=15.219331681728361 12.995761066675188 16.929948210716248
leaf_count=34 44 55
internal_value=0 -0.61468
internal_weight=0 29.9257
internal_count=133 99
shrinkage=0.06


Tree=18
num_leaves=4
num_cat=0
split_feature=12 3 0
split_gain=28.4585 1.66639 0.300524
threshold=755.00000000000011 18.250000000000004 13.165000000000001
decision_type=2 2 2
left_child=2 -2 -1
right_child=1 -3 -4
leaf_value=-0.041749767991726125 0.057935590808095495 0.027363675090083139 -0.028496524297031929
leaf_weight=23.671673566102985 15.927518695592882 10.750892400741575 8.3257321417331678
leaf_count=59 32 22 20
internal_value=0 0.760262 -0.638355
internal_weight=0 26.6784 31.9974
internal_count=133 54 79
shrinkage=0.06


Tree=19
num_leaves=4
num_cat=0
split_feature=9 0 0
split_gain=24.9571 2.62013 1.01055
threshold=3.9450000000000007 13.165000000000001 12.395000000000001
decision_type=2 2 2
left_child=2 -2 -1
right_child=1 -3 -4
leaf_value=0.05594192572152145 -0.0092717550872893333 -0.043580898695044695 0.031483438770315522
leaf_weight=14.814046889543535 12.068491071462629 23.84699547290802 10.316395729780195
leaf_count=30 26 56 21
internal_value=0 -0.534203 0.765023
internal_weight=0 35.9155 25.1304
internal_count=133 82 51
shrinkage=0.06


Tree=20
num_leaves=3
num_cat=0
split_feature=6 9
split_gain=30.9932 0.000637958
threshold=1.2750000000000001 3.8500000000000001
decision_type=2 2
left_child=-1 -2
right_child=1 -3
leaf_value=0.068298699805622795 -0.036239902501207878 -0.036808071494095665
leaf_weight=15.611042916774748 12.529601752758028 16.461267858743668
leaf_count=34 44 55
internal_value=0 -0.609375
internal_weight=0 28.9909
internal_count=133 99
shrinkage=0.06


Tree=21
num_leaves=4
num_cat=0
split_feature=12 3 4
split_gain=26.2916 1.53019 0.301416
threshold=755.00000000000011 18.250000000000004 100.50000000000001
decision_type=2 2 2
left_child=2 -2 -1
right_child=1 -3 -4
leaf_value=-0.04116844614625597 0.055545166857843026 0.02619762437390467 -0.027882972537094278
leaf_weight=22.717939823865894 15.824125915765764 10.734812587499617 8.42861360311508
leaf_count=58 32 22 21
internal_value=0 0.728054 -0.626221
internal_weight=0 26.5589 31.1466
internal_count=133 54 79
shrinkage=0.06


Tree=22
num_leaves=4
num_cat=0
split_feature=9 12 12
split_gain=23.0144 4.95726 0.00660445
threshold=3.4600000000000004 666.00000000000011 491.50000000000006
decision_type=2 2 2
left_child=2 -2 -1
right_child=1 -3 -4
leaf_value=0.052398045433602138 0.0027995793469378061 -0.041167690358715939 0.054603415637404916
leaf_weight=9.781251937150957 14.217272758483885 26.326554805040359 9.7727843821048719
leaf_count=20 30 63 20
internal_value=0 -0.429166 0.891671
internal_weight=0 40.5438 19.554
internal_count=133 93 40
shrinkage=0.06


Tree=23
num_leaves=3
num_cat=0
split_feature=6 9
split_gain=28.5313 0.000777504
threshold=1.2750000000000001 3.8500000000000001
decision_type=2 2
left_child=-1 -2
right_child=1 -3
leaf_value=0.064254499322581843 -0.035893711660927231 -0.036531829316831473
leaf_weight=15.948764294385908 12.060287445783617 15.984400629997252
leaf_count=34 44 55
internal_value=0 -0.60429
internal_weight=0 28.0447
internal_count=133 99
shrinkage=0.06


Tree=24
num_leaves=4
num_cat=0
split_feature=12 0 4
split_gain=24.1658 1.47155 0.299854
threshold=755.00000000000011 13.505000000000001 100.50000000000001
decision_type=2 2 2
left_child=2 -2 -1
right_child=1 -3 -4
leaf_value=-0.040503176667315628 0.023216254722067949 0.052580085035023524 -0.027081267313372168
leaf_weight=22.006197661161426 9.7428429722785967 16.633241564035416 8.2343326508998853
leaf_count=58 20 34 21
internal_value=0 0.69556 -0.614141
internal_weight=0 26.3761 30.2405
internal_count=133 54 79
shrinkage=0.06


Tree=25
num_leaves=4
num_cat=0
split_feature=9 0 6
split_gain=21.3971 2.41592 0.929552
threshold=3.9450000000000007 13.165000000000001 2.2450000000000006
decision_type=2 2 2
left_child=2 -2 -1
right_child=1 -3 -4
leaf_value=0.052159610636647515 -0.008576514627758252 -0.042011735344471932 0.02829033431501057
leaf_weight=14.923738062381746 11.870638638734816 22.576276451349258 9.685367137193678
leaf_count=31 26 56 20
internal_value=0 -0.508162 0.712757
internal_weight=0 34.4469 24.6091
internal_count=133 82 51
shrinkage=0.06


Tree=26
num_leaves=3
num_cat=0
split_feature=6 9
split_gain=26.4513 0.000925097
threshold=1.2750000000000001 3.8500000000000001
decision_type=2 2
left_child=-1 -2
right_child=1 -3
leaf_value=0.060915962135209445 -0.035567660603591109 -0.036275937078317277
leaf_weight=16.204093605279922 11.599254742264749 15.52333417534828
leaf_count=34 44 55
internal_value=0 -0.599551
internal_weight=0 27.1226
internal_count=133 99
shrinkage=0.06


Tree=27
num_leaves=4
num_cat=0
split_feature=12 3 0
split_gain=22.3975 1.37634 0.30503
threshold=755.00000000000011 18.250000000000004 13.165000000000001
decision_type=2 2 2
left_child=2 -2 -1
right_child=1 -3 -4
leaf_value=-0.039879369554152388 0.051605340711811762 0.023572297213998391 -0.026030770713062635
leaf_weight=21.585507869720463 15.456156551837923 10.649144530296324 7.7929107248783103
leaf_count=59 32 22 20
internal_value=0 0.669497 -0.603432
internal_weight=0 26.1053 29.3784
internal_count=133 54 79
shrinkage=0.06


Tree=28
num_leaves=4
num_cat=0
split_feature=9 12 12
split_gain=19.7715 4.53309 0.00916051
threshold=3.4600000000000004 666.00000000000011 491.50000000000006
decision_type=2 2 2
left_child=2 -2 -1
right_child=1 -3 -4
leaf_value=0.048937406280423118 0.0028578420847305869 -0.039768663197758278 0.051573857892782467
leaf_weight=9.4749084413051623 14.034985870122908 24.94234174489975 9.502795070409773
leaf_count=20 30 63 20
internal_value=0 -0.406995 0.837626
internal_weight=0 38.9773 18.9777
internal_count=133 93 40
shrinkage=0.06


Tree=29
num_leaves=3
num_cat=0
split_feature=6 9
split_gain=24.4804 0.00104134
threshold=1.2750000000000001 3.8500000000000001
decision_type=2 2
left_child=-1 -2
right_child=1 -3
leaf_value=0.05776039286886684 -0.035259332522889694 -0.036024550840033719
leaf_weight=16.412751495838165 11.144318804144861 15.045246526598929
leaf_count=34 44 55
internal_value=0 -0.594982
internal_weight=0 26.1896
internal_count=133 99
shrinkage=0.06


Tree=30
num_leaves=4
num_cat=0
split_feature=12 0 4
split_gain=20.6449 1.31273 0.30609
threshold=755.00000000000011 13.505000000000001 100.50000000000001
decision_type=2 2 2
left_child=2 -2 -1
right_child=1 -3 -4
leaf_value=-0.039395496546302561 0.021086486120222316 0.049039110900240629 -0.02545768609367945
leaf_weight=20.65159580111504 9.6859163641929644 16.104834794998169 7.8203357458114615
leaf_count=58 20 34 21
internal_value=0 0.642355 -0.592787
internal_weight=0 25.7908 28.4719
internal_count=133 54 79
shrinkage=0.06


Tree=31
num_leaves=4
num_cat=0
split_feature=9 0 6
split_gain=18.4343 2.23123 0.858501
threshold=3.9450000000000007 13.165000000000001 2.2450000000000006
decision_type=2 2 2
left_child=2 -2 -1
right_child=1 -3 -4
leaf_value=0.049400615765363781 -0.0080061786710377888 -0.040665458728786769 0.0261420660570293
leaf_weight=14.398186922073366 11.666655570268629 21.242401599884033 9.4714442789554578
leaf_count=31 26 56 20
internal_value=0 -0.484789 0.669527
internal_weight=0 32.9091 23.8696
internal_count=133 82 51
shrinkage=0.06


Tree=32
num_leaves=3
num_cat=0
split_feature=6 9
split_gain=22.827 0.00117423
threshold=1.2750000000000001 3.8500000000000001
decision_type=2 2
left_child=-1 -2
right_child=1 -3
leaf_value=0.055178672542009838 -0.034968891396806749 -0.035796409211579401
leaf_weight=16.555522501468658 10.699083030223848 14.592607975006102
leaf_count=34 44 55
internal_value=0 -0.590772
internal_weight=0 25.2917
internal_count=133 99
shrinkage=0.06


Tree=33
num_leaves=4
num_cat=0
split_feature=12 10 0
split_gain=19.182 1.2849 0.311935
threshold=755.00000000000011 1.0250000000000001 13.165000000000001
decision_type=2 2 2
left_child=2 -2 -1
right_child=1 -3 -4
leaf_value=-0.038862883090122549 0.020114321393714777 0.047867966104413288 -0.024482087208165654
leaf_weight=20.188246905803684 9.7323990762233752 15.681217342615126 7.4278805255889884
leaf_count=59 21 33 20
internal_value=0 0.620657 -0.583248
internal_weight=0 25.4136 27.6161
internal_count=133 54 79
shrinkage=0.06


Tree=34
num_leaves=4
num_cat=0
split_feature=9 12 12
split_gain=17.0902 4.17035 0.0116716
threshold=3.4600000000000004 666.00000000000011 491.50000000000006
decision_type=2 2 2
left_child=2 -2 -1
right_child=1 -3 -4
leaf_value=0.046132728800148862 0.0029507533940846468 -0.03857661569715503 0.049169496412853841
leaf_weight=9.0749868750572222 13.816528826951979 23.535162955522537 9.150344252586363
leaf_count=20 30 63 20
internal_value=0 -0.386925 0.79429
internal_weight=0 37.3517 18.2253
internal_count=133 93 40
shrinkage=0.06


Tree=35
num_leaves=3
num_cat=0
split_feature=6 9
split_gain=21.2254 0.00127501
threshold=1.2750000000000001 3.8500000000000001
decision_type=2 2
left_child=-1 -2
right_child=1 -3
leaf_value=0.052666711371388487 -0.034693999227925584 -0.035572753217158914
leaf_weight=16.654649794101715 10.262166425585749 14.126236423850058
leaf_count=34 44 55
internal_value=0 -0.586717
internal_weight=0 24.3884
internal_count=133 99
shrinkage=0.06


Tree=36
num_leaves=4
num_cat=0
split_feature=12 3 4
split_gain=17.7101 1.26035 0.313739
threshold=755.00000000000011 18.250000000000004 100.50000000000001
decision_type=2 2 2
left_child=2 -2 -1
right_child=1 -3 -4
leaf_value=-0.038451810959976684 0.047160703896055013 0.019837050796677108 -0.023931103979155367
leaf_weight=19.312613531947139 14.632117092609407 10.394826531410216 7.4127120673656455
leaf_count=58 32 22 21
internal_value=0 0.596866 -0.573738
internal_weight=0 25.0269 26.7253
internal_count=133 54 79
shrinkage=0.06


Tree=37
num_leaves=4
num_cat=0
split_feature=9 0 6
split_gain=15.9913 2.07575 0.800377
threshold=3.9450000000000007 13.165000000000001 2.2450000000000006
decision_type=2 2 2
left_child=2 -2 -1
right_child=1 -3 -4
leaf_value=0.047224138320693436 -0.0074666826498366043 -0.039530000164693997 0.024367430800693795
leaf_weight=13.763000279664995 11.445203244686128 19.91960597038269 9.2034542560577375
leaf_count=31 26 56 20
internal_value=0 -0.463832 0.634411
internal_weight=0 31.3648 22.9665
internal_count=133 82 51
shrinkage=0.06


Tree=38
num_leaves=3
num_cat=0
split_feature=6 9
split_gain=19.8698 0.00140019
threshold=1.2750000000000001 3.8500000000000001
decision_type=2 2
left_child=-1 -2
right_child=1 -3
leaf_value=0.050590793694287935 -0.034430855297184988 -0.035369410894952137
leaf_weight=16.707808703184128 9.8281999230384844 13.697228059172629
leaf_count=34 44 55
internal_value=0 -0.582955
internal_weight=0 23.5254
internal_count=133 99
shrinkage=0.06


Tree=39
num_leaves=4
num_cat=0
split_feature=12 3 0
split_gain=16.4833 1.19912 0.321061
threshold=755.00000000000011 18.250000000000004 13.165000000000001
decision_type=2 2 2
left_child=2 -2 -1
right_child=1 -3 -4
leaf_value=-0.038001754951986738 0.045945384542366262 0.019090271213008859 -0.023001052292871631
leaf_weight=18.824425980448726 14.281115025281908 10.304666370153425 7.0639884173870078
leaf_count=59 32 22 20
internal_value=0 0.57816 -0.565144
internal_weight=0 24.5858 25.8884
internal_count=133 54 79
shrinkage=0.06


Tree=40
num_leaves=4
num_cat=0
split_feature=9 4 12
split_gain=14.8661 3.88912 0.0144592
threshold=3.4600000000000004 92.500000000000014 491.50000000000006
decision_type=2 2 2
left_child=2 -2 -1
right_child=1 -3 -4
leaf_value=0.043839341127892978 0.01174860771646897 -0.033683803113041255 0.047303343188474373
leaf_weight=8.6108176708221453 9.1023112237453443 26.620553940534592 8.7422221004962903
leaf_count=20 21 72 20
internal_value=0 -0.368458 0.759741
internal_weight=0 35.7229 17.353
internal_count=133 93 40
shrinkage=0.06


Tree=41
num_leaves=3
num_cat=0
split_feature=6 9
split_gain=18.5473 0.00149666
threshold=1.2750000000000001 3.8500000000000001
decision_type=2 2
left_child=-1 -2
right_child=1 -3
leaf_value=0.048544967233573218 -0.034184851360698848 -0.035174364474082648
leaf_weight=16.717192441225052 9.4096147567033785 13.253571063280104
leaf_count=34 44 55
internal_value=0 -0.579392
internal_weight=0 22.6632
internal_count=133 99
shrinkage=0.06


Tree=42
num_leaves=4
num_cat=0
split_feature=12 10 0
split_gain=15.3134 1.17881 0.32345
threshold=755.00000000000011 1.0250000000000001 13.165000000000001
decision_type=2 2 2
left_child=2 -2 -1
right_child=1 -3 -4
leaf_value=-0.037608869979725734 0.016749953816510375 0.044025174814608645 -0.02234709880833442
leaf_weight=18.148268848657612 9.2508956491947192 14.879824936389921 6.8998558223247519
leaf_count=59 21 33 20
internal_value=0 0.55948 -0.556747
internal_weight=0 24.1307 25.0481
internal_count=133 54 79
shrinkage=0.06


Tree=43
num_leaves=4
num_cat=0
split_feature=9 0 6
split_gain=13.9148 1.98626 0.768507
threshold=3.9450000000000007 13.165000000000001 2.2450000000000006
decision_type=2 2 2
left_child=2 -2 -1
right_child=1 -3 -4
leaf_value=0.045532186831468868 -0.0066294864667950934 -0.038618641998892603 0.022667560336447127
leaf_weight=13.065046548843386 11.162820130586626 18.682646334171295 8.8949562311172468
leaf_count=31 26 56 20
internal_value=0 -0.444234 0.604514
internal_weight=0 29.8455 21.96
internal_count=133 82 51
shrinkage=0.06


Tree=44
num_leaves=3
num_cat=0
split_feature=6 9
split_gain=17.3562 0.00154415
threshold=1.2750000000000001 3.8500000000000001
decision_type=2 2
left_child=-1 -2
right_child=1 -3
leaf_value=0.046712172884341069 -0.03396015798643328 -0.034985254609488294
leaf_weight=16.696219474077225 9.0104495733976382 12.812158092856405
leaf_count=34 44 55
internal_value=0 -0.576033
internal_weight=0 21.8226
internal_count=133 99
shrinkage=0.06


Tree=45
num_leaves=4
num_cat=0
split_feature=12 3 4
split_gain=14.2658 1.14921 0.326291
threshold=755.00000000000011 18.250000000000004 100.50000000000001
decision_type=2 2 2
left_child=2 -2 -1
right_child=1 -3 -4
leaf_value=-0.037296494663675968 0.043934376045900156 0.017193182694574264 -0.021823433883676031
leaf_weight=17.405903726816181 13.595045685768129 10.071478158235548 6.8321302235126486
leaf_count=58 32 22 21
internal_value=0 0.542574 -0.548917
internal_weight=0 23.6665 24.238
internal_count=133 54 79
shrinkage=0.06


Tree=46
num_leaves=4
num_cat=0
split_feature=9 12 12
split_gain=12.9858 3.64676 0.0171738
threshold=3.4600000000000004 666.00000000000011 491.50000000000006
decision_type=2 2 2
left_child=2 -2 -1
right_child=1 -3 -4
leaf_value=0.04193222582068773 0.003548442449643913 -0.036694958250993726 0.045815749696948412
leaf_weight=8.1029799878597277 13.252431809902189 20.87529981136322 8.2967882454395276
leaf_count=20 30 63 20
internal_value=0 -0.351128 0.731616
internal_weight=0 34.1277 16.3998
internal_count=133 93 40
shrinkage=0.06


Tree=47
num_leaves=3
num_cat=0
split_feature=6 9
split_gain=16.2605 0.00163156
threshold=1.2750000000000001 3.8500000000000001
decision_type=2 2
left_child=-1 -2
right_child=1 -3
leaf_value=0.045030585972236067 -0.033738463310123 -0.034813555777568776
leaf_weight=16.63570049405098 8.6105003803968447 12.399996116757391
leaf_count=34 44 55
internal_value=0 -0.572883
internal_weight=0 21.0105
internal_count=133 99
shrinkage=0.06


Tree=48
num_leaves=4
num_cat=0
split_feature=12 6 4
split_gain=13.2932 2.92913 0.0566335
threshold=882.50000000000011 2.3150000000000004 103.50000000000001
decision_type=2 2 2
left_child=1 -1 -2
right_child=2 -3 -4
leaf_value=-0.038010661713247997 0.044470282711914076 0.0031254118395298821 0.037605629198220192
leaf_weight=20.234602063894275 8.5648539066314715 9.004649490118025 8.7430719435214979
leaf_count=68 20 24 21
internal_value=0 -0.42237 0.683377
internal_weight=0 29.2393 17.3079
internal_count=133 92 41
shrinkage=0.06


Tree=49
num_leaves=4
num_cat=0
split_feature=9 0 6
split_gain=12.1999 1.86814 0.728385
threshold=3.9450000000000007 13.165000000000001 2.2450000000000006
decision_type=2 2 2
left_child=2 -2 -1
right_child=1 -3 -4
leaf_value=0.044165848643407848 -0.0061403311473445113 -0.037801534418517004 0.021377734820660722
leaf_weight=12.31955209374428 10.905156344175341 17.435686469078064 8.556640297174452
leaf_count=31 26 56 20
internal_value=0 -0.426979 0.580426
internal_weight=0 28.3408 20.8762
internal_count=133 82 51
shrinkage=0.06


Tree=50
num_leaves=3
num_cat=0
split_feature=6 9
split_gain=15.3021 0.0016996
threshold=1.2750000000000001 3.8500000000000001
decision_type=2 2
left_child=-1 -2
right_child=1 -3
leaf_value=0.043598446692185176 -0.033532462723243645 -0.034652284750633172
leaf_weight=16.555019497871399 8.2256320565938967 11.993389070034025
leaf_count=34 44 55
internal_value=0 -0.569945
internal_weight=0 20.219
internal_count=133 99
shrinkage=0.06


Tree=51
num_leaves=4
num_cat=0
split_feature=12 10 0
split_gain=12.453 1.05599 0.344806
threshold=755.00000000000011 1.0250000000000001 13.165000000000001
decision_type=2 2 2
left_child=2 -2 -1
right_child=1 -3 -4
leaf_value=-0.036725711390273849 0.01441112100406909 0.041091507667611639 -0.020250993818336886
leaf_weight=16.328512042760853 8.6733939647674578 13.897694319486616 6.3527435064315787
leaf_count=59 21 33 20
internal_value=0 0.513984 -0.535189
internal_weight=0 22.5711 22.6813
internal_count=133 54 79
shrinkage=0.06


Tree=52
num_leaves=4
num_cat=0
split_feature=9 4 12
split_gain=11.4233 3.46951 0.0189288
threshold=3.4600000000000004 92.500000000000014 491.50000000000006
decision_type=2 2 2
left_child=2 -2 -1
right_child=1 -3 -4
leaf_value=0.04043456207181436 0.012472668811402932 -0.031878756394043563 0.044635743109573231
leaf_weight=7.59924668073654 8.6486506611108762 23.88806027173996 7.8481620252132416
leaf_count=20 21 72 20
internal_value=0 -0.334827 0.709483
internal_weight=0 32.5367 15.4474
internal_count=133 93 40
shrinkage=0.06


Tree=53
num_leaves=3
num_cat=0
split_feature=6 9
split_gain=14.2461 0.00168567
threshold=1.2750000000000001 3.8500000000000001
decision_type=2 2
left_child=-1 -2
right_child=1 -3
leaf_value=0.041896314808960666 -0.033334850637319481 -0.03447411204900977
leaf_weight=16.435859829187393 7.8496134579181698 11.562649235129355
leaf_count=34 44 55
internal_value=0 -0.566891
internal_weight=0 19.4123
internal_count=133 99
shrinkage=0.06


Tree=54
num_leaves=4
num_cat=0
split_feature=12 6 4
split_gain=11.6108 2.70151 0.0558924
threshold=882.50000000000011 2.3150000000000004 105.50000000000001
decision_type=2 2 2
left_child=1 -1 -2
right_child=2 -3 -4
leaf_value=-0.037347019686838248 0.042602066792308997 0.0029775575088529702 0.035591073487992446
leaf_weight=18.819830730557445 8.4920323491096514 8.7671568393707258 7.9031693041324607
leaf_count=68 21 24 20
internal_value=0 -0.408864 0.653708
internal_weight=0 27.587 16.3952
internal_count=133 92 41
shrinkage=0.06


Tree=55
num_leaves=4
num_cat=0
split_feature=9 0 5
split_gain=10.729 1.80222 0.69211
threshold=3.9450000000000007 13.165000000000001 2.3800000000000003
decision_type=2 2 2
left_child=2 -2 -1
right_child=1 -3 -4
leaf_value=0.043975382472478675 -0.0053397212331995816 -0.037108806827041915 0.021470953746034752
leaf_weight=10.677828162908556 10.614377647638323 16.300355017185211 9.1231707930564863
leaf_count=28 26 56 23
internal_value=0 -0.409667 0.56011
internal_weight=0 26.9147 19.801
internal_count=133 82 51
shrinkage=0.06


Tree=56
num_leaves=3
num_cat=0
split_feature=6 9
split_gain=13.3971 0.00170047
threshold=1.2750000000000001 3.8500000000000001
decision_type=2 2
left_child=-1 -2
right_child=1 -3
leaf_value=0.040591125016569772 -0.033155777444418714 -0.03432409990091019
leaf_weight=16.302695959806442 7.4918749183416393 11.173682034015654
leaf_count=34 44 55
internal_value=0 -0.564253
internal_weight=0 18.6656
internal_count=133 99
shrinkage=0.06


Tree=57
num_leaves=4
num_cat=0
split_feature=12 3 0
split_gain=10.9418 0.997221 0.356893
threshold=755.00000000000011 18.250000000000004 13.165000000000001
decision_type=2 2 2
left_child=2 -2 -1
right_child=1 -3 -4
leaf_value=-0.036260764044001963 0.040771613462651908 0.014713704151581707 -0.018996264337174908
leaf_weight=15.205448746681215 12.088509052991869 9.3969427943229658 6.0160093009471884
leaf_count=59 32 22 20
internal_value=0 0.489581 -0.522775
internal_weight=0 21.4855 21.2215
internal_count=133 54 79
shrinkage=0.06


Tree=58
num_leaves=4
num_cat=0
split_feature=9 12 12
split_gain=10.0949 3.24484 0.0208611
threshold=3.4600000000000004 666.00000000000011 491.50000000000006
decision_type=2 2 2
left_child=2 -2 -1
right_child=1 -3 -4
leaf_value=0.03916989083235458 0.0042527081829045544 -0.035247220764859678 0.043723926571646525
leaf_weight=7.0961823761463148 12.628357142210008 18.389346972107887 7.3945704698562622
leaf_count=20 30 63 20
internal_value=0 -0.319424 0.691563
internal_weight=0 31.0177 14.4908
internal_count=133 93 40
shrinkage=0.06


Tree=59
num_leaves=3
num_cat=0
split_feature=6 9
split_gain=12.5017 0.0016649
threshold=1.2750000000000001 3.8500000000000001
decision_type=2 2
left_child=-1 -2
right_child=1 -3
leaf_value=0.039132014334889338 -0.032981917539320824 -0.034163212467775081
leaf_weight=16.128430366516113 7.1472453325986889 10.763179078698156
leaf_count=34 44 55
internal_value=0 -0.56153
internal_weight=0 17.9104
internal_count=133 99
shrinkage=0.06


Tree=60
num_leaves=4
num_cat=0
split_feature=6 12 11
split_gain=10.186 3.02194 0.0737584
threshold=2.3150000000000004 805.00000000000011 2.7400000000000007
decision_type=2 2 2
left_child=2 -2 -1
right_child=1 -3 -4
leaf_value=-0.03745137780072326 -0.0087910471249957878 0.038688335650264929 -0.028797403867286551
leaf_weight=12.974459007382395 6.7779929041862514 16.756358474493027 4.8787741959094992
leaf_count=48 20 44 21
internal_value=0 0.416901 -0.584775
internal_weight=0 23.5344 17.8532
internal_count=133 64 69
shrinkage=0.06


Tree=61
num_leaves=4
num_cat=0
split_feature=0 12 1
split_gain=9.54065 2.0181 0.282532
threshold=12.520000000000001 635.00000000000011 1.6650000000000003
decision_type=2 2 2
left_child=2 -2 -1
right_child=1 -3 -4
leaf_value=0.046214427522883308 0.0020920232431598539 -0.031398439595664226 0.029857558534266793
leaf_weight=8.094370633363722 9.7805618047714251 19.179775223135948 7.1683451235294333
leaf_count=21 25 66 21
internal_value=0 -0.334799 0.642203
internal_weight=0 28.9603 15.2627
internal_count=133 91 42
shrinkage=0.06


Tree=62
num_leaves=3
num_cat=0
split_feature=6 9
split_gain=11.822 0.00169088
threshold=1.2750000000000001 3.8500000000000001
decision_type=2 2
left_child=-1 -2
right_child=1 -3
leaf_value=0.038118863960104152 -0.03282029986203408 -0.03403640045888013
leaf_weight=15.973341107368467 6.8126314058899906 10.398505881428717
leaf_count=34 44 55
internal_value=0 -0.559251
internal_weight=0 17.2111
internal_count=133 99
shrinkage=0.06


Tree=63
num_leaves=4
num_cat=0
split_feature=12 3 0
split_gain=9.51717 0.933341 0.365953
threshold=755.00000000000011 18.250000000000004 13.165000000000001
decision_type=2 2 2
left_child=2 -2 -1
right_child=1 -3 -4
leaf_value=-0.035789713641968784 0.039385235069354971 0.013500414569475013 -0.017777628053719748
leaf_weight=14.10659532248974 11.256558984518053 9.0437945723533613 5.7020709067583075
leaf_count=59 32 22 20
internal_value=0 0.464226 -0.51008
internal_weight=0 20.3004 19.8087
internal_count=133 54 79
shrinkage=0.06


Tree=64
num_leaves=4
num_cat=0
split_feature=9 0 5
split_gain=9.0622 1.63286 0.633238
threshold=3.9450000000000007 13.165000000000001 2.3800000000000003
decision_type=2 2 2
left_child=2 -2 -1
right_child=1 -3 -4
leaf_value=0.042756412630317091 -0.0049761871595311279 -0.036222586442270922 0.020349336119584768
leaf_weight=9.752784341573717 10.235932946205141 14.620526567101477 8.4956407546997053
leaf_count=28 26 56 23
internal_value=0 -0.389254 0.538745
internal_weight=0 24.8565 18.2484
internal_count=133 82 51
shrinkage=0.06


Tree=65
num_leaves=3
num_cat=0
split_feature=6 9
split_gain=11.1039 0.00157016
threshold=1.2750000000000001 3.8500000000000001
decision_type=2 2
left_child=-1 -2
right_child=1 -3
leaf_value=0.036971970049725938 -0.032681820944029633 -0.033878423767009565
leaf_weight=15.778444945812224 6.5238470584154156 9.9972590655088407
leaf_count=34 44 55
internal_value=0 -0.556765
internal_weight=0 16.5211
internal_count=133 99
shrinkage=0.06


Tree=66
num_leaves=4
num_cat=0
split_feature=6 0 11
split_gain=9.01977 2.68412 0.0695582
threshold=2.3150000000000004 13.060000000000002 2.7400000000000007
decision_type=2 2 2
left_child=2 -2 -1
right_child=1 -3 -4
leaf_value=-0.036899333691329979 -0.0074624531810230082 0.037707789892032266 -0.028156843508942556
leaf_weight=12.115603484213354 6.8259638696908977 15.466617345809935 4.4906230717897406
leaf_count=48 20 44 21
internal_value=0 0.397945 -0.575587
internal_weight=0 22.2926 16.6062
internal_count=133 64 69
shrinkage=0.06


Tree=67
num_leaves=4
num_cat=0
split_feature=9 4 12
split_gain=8.52115 2.99184 0.0243173
threshold=3.4600000000000004 92.500000000000014 491.50000000000006
decision_type=2 2 2
left_child=2 -2 -1
right_child=1 -3 -4
leaf_value=0.037625444567310921 0.012997967285343724 -0.030115485887952292 0.042794402954419816
leaf_weight=6.3641452193260175 8.0427497476339358 20.728728085756302 6.7534611523151398
leaf_count=20 21 72 20
internal_value=0 -0.30106 0.671444
internal_weight=0 28.7715 13.1176
internal_count=133 93 40
shrinkage=0.06


Tree=68
num_leaves=3
num_cat=0
split_feature=6 9
split_gain=10.48 0.00158622
threshold=1.2750000000000001 3.8500000000000001
decision_type=2 2
left_child=-1 -2
right_child=1 -3
leaf_value=0.03600002041567945 -0.032537230794938032 -0.033766033491593968
leaf_weight=15.572892189025881 6.2200678512454024 9.6476391255855543
leaf_count=34 44 55
internal_value=0 -0.554739
internal_weight=0 15.8677
internal_count=133 99
shrinkage=0.06


Tree=69
num_leaves=4
num_cat=0
split_feature=12 3 0
split_gain=8.44385 0.867326 0.368359
threshold=755.00000000000011 18.250000000000004 13.165000000000001
decision_type=2 2 2
left_child=2 -2 -1
right_child=1 -3 -4
leaf_value=-0.035445727575273749 0.038402034714103341 0.012768274408502513 -0.016832392908880434
leaf_weight=13.114391982555391 10.489266753196718 8.6873458623886091 5.4051431715488425
leaf_count=59 32 22 20
internal_value=0 0.446491 -0.50022
internal_weight=0 19.1766 18.5195
internal_count=133 54 79
shrinkage=0.06


Tree=70
num_leaves=4
num_cat=0
split_feature=0 12 1
split_gain=8.08149 1.7584 0.276276
threshold=12.520000000000001 635.00000000000011 1.6650000000000003
decision_type=2 2 2
left_child=2 -2 -1
right_child=1 -3 -4
leaf_value=0.045006891592943306 0.0020262013796234607 -0.030304749896231463 0.028129645603071345
leaf_weight=7.499497711658476 9.2758734226226824 17.446035116910934 6.5339324176311493
leaf_count=21 25 66 21
internal_value=0 -0.318031 0.619148
internal_weight=0 26.7219 14.0334
internal_count=133 91 42
shrinkage=0.06


Tree=71
num_leaves=3
num_cat=0
split_feature=6 9
split_gain=9.80481 0.00148542
threshold=1.2750000000000001 3.8500000000000001
decision_type=2 2
left_child=-1 -2
right_child=1 -3
leaf_value=0.034848879449776167 -0.032404372415089651 -0.033620660718477066
leaf_weight=15.338174194097521 5.9217740893363944 9.2785530835390073
leaf_count=34 44 55
internal_value=0 -0.552447
internal_weight=0 15.2003
internal_count=133 99
shrinkage=0.06


Tree=72
num_leaves=4
num_cat=0
split_feature=6 12 11
split_gain=8.0025 2.41907 0.0664245
threshold=2.3150000000000004 805.00000000000011 2.7400000000000007
decision_type=2 2 2
left_child=2 -2 -1
right_child=1 -3 -4
leaf_value=-0.036419258894395026 -0.0082876634345350701 0.036096114473572229 -0.027522550369916278
leaf_weight=11.319869719445704 6.3094735294580486 14.768798410892485 4.1209988594055167
leaf_count=48 20 44 21
internal_value=0 0.380175 -0.567414
internal_weight=0 21.0783 15.4409
internal_count=133 64 69
shrinkage=0.06


Tree=73
num_leaves=4
num_cat=0
split_feature=9 1 5
split_gain=7.66126 1.53815 0.60467
threshold=3.9450000000000007 1.6650000000000003 2.3800000000000003
decision_type=2 2 2
left_child=2 -2 -1
right_child=1 -3 -4
leaf_value=0.041881866247625396 0.00338228971347712 -0.031685960056538891 0.019024911264929664
leaf_weight=8.869682580232622 6.1570675969123867 16.757774114608765 7.8580031991004935
leaf_count=28 20 62 23
internal_value=0 -0.371056 0.519076
internal_weight=0 22.9148 16.7277
internal_count=133 82 51
shrinkage=0.06


Tree=74
num_leaves=3
num_cat=0
split_feature=6 9
split_gain=9.31236 0.00140269
threshold=1.2750000000000001 3.8500000000000001
decision_type=2 2
left_child=-1 -2
right_child=1 -3
leaf_value=0.034122507565696562 -0.0322937888408781 -0.033500090596863819
leaf_weight=15.138195723295214 5.6749028339982024 8.9321655407547933
leaf_count=34 44 55
internal_value=0 -0.550524
internal_weight=0 14.6071
internal_count=133 99
shrinkage=0.06


Tree=75
num_leaves=4
num_cat=0
split_feature=6 0 11
split_gain=7.49989 2.36443 0.0652301
threshold=2.3150000000000004 13.060000000000002 2.7400000000000007
decision_type=2 2 2
left_child=2 -2 -1
right_child=1 -3 -4
leaf_value=-0.036115309405208768 -0.0077463747141803558 0.036045365370659374 -0.027122477319369297
leaf_weight=10.888415932655333 6.4816574603319195 14.08138471841812 3.9597207158803931
leaf_count=48 20 44 21
internal_value=0 0.370697 -0.561951
internal_weight=0 20.563 14.8481
internal_count=133 64 69
shrinkage=0.06


Tree=76
num_leaves=4
num_cat=0
split_feature=9 4 12
split_gain=7.25405 2.69443 0.0262532
threshold=3.4600000000000004 92.500000000000014 491.50000000000006
decision_type=2 2 2
left_child=2 -2 -1
right_child=1 -3 -4
leaf_value=0.036469510713799058 0.012968918787785721 -0.029108480527496393 0.042120014720839725
leaf_weight=5.6974623650312406 7.6960786283016231 19.014533594250679 6.161197692155838
leaf_count=20 21 72 20
internal_value=0 -0.28308 0.656754
internal_weight=0 26.7106 11.8587
internal_count=133 93 40
shrinkage=0.06


Tree=77
num_leaves=3
num_cat=0
split_feature=6 10
split_gain=8.75592 1.01439
threshold=0.97000000000000008 0.88500000000000012
decision_type=2 2
left_child=-1 -2
right_child=1 -3
leaf_value=0.041174564129192626 -0.001378273823011574 -0.034752564932305462
leaf_weight=11.655160248279573 4.4097927734255817 12.780658051371573
leaf_count=27 22 84
internal_value=0 -0.43652
internal_weight=0 17.1905
internal_count=133 106
shrinkage=0.06


Tree=78
num_leaves=4
num_cat=0
split_feature=12 3 0
split_gain=7.0771 0.784021 0.37956
threshold=755.00000000000011 18.250000000000004 13.165000000000001
decision_type=2 2 2
left_child=2 -2 -1
right_child=1 -3 -4
leaf_value=-0.035010175498513478 0.037156410303776755 0.011712747835479266 -0.015219377853689103
leaf_weight=11.79079904407263 9.4216483831405657 8.1150760650634748 4.9546047598123542
leaf_count=59 32 22 20
internal_value=0 0.42304 -0.485908
internal_weight=0 17.5367 16.7454
internal_count=133 54 79
shrinkage=0.06


Tree=79
num_leaves=4
num_cat=0
split_feature=0 12 1
split_gain=6.87643 1.55408 0.251343
threshold=12.520000000000001 635.00000000000011 1.6650000000000003
decision_type=2 2 2
left_child=2 -2 -1
right_child=1 -3 -4
leaf_value=0.043739713734588577 0.0021443748000908262 -0.029330456770771136 0.02691122545070818
leaf_weight=6.9258950650691968 8.7594812065362948 15.895593822002409 5.9313074499368668
leaf_count=21 25 66 21
internal_value=0 -0.302467 0.599606
internal_weight=0 24.6551 12.8572
internal_count=133 91 42
shrinkage=0.06


Tree=80
num_leaves=3
num_cat=0
split_feature=6 9
split_gain=8.21606 0.0013139
threshold=1.2750000000000001 3.8500000000000001
decision_type=2 2
left_child=-1 -2
right_child=1 -3
leaf_value=0.032233754099569425 -0.032067686647838746 -0.03328740718518057
leaf_weight=14.556464999914171 5.1590540036559096 8.2855690717697126
leaf_count=34 44 55
internal_value=0 -0.546989
internal_weight=0 13.4446
internal_count=133 99
shrinkage=0.06


Tree=81
num_leaves=4
num_cat=0
split_feature=6 0 11
split_gain=6.67313 2.1622 0.0622659
threshold=2.3150000000000004 13.235000000000001 2.7400000000000007
decision_type=2 2 2
left_child=2 -2 -1
right_child=1 -3 -4
leaf_value=-0.035689949003657205 -0.0042080497722976756 0.037037229839134753 -0.026533317841382759
leaf_weight=10.16371229290962 7.3950560986995724 12.001292586326597 3.627769097685813
leaf_count=48 23 41 21
internal_value=0 0.355201 -0.554689
internal_weight=0 19.3963 13.7915
internal_count=133 64 69
shrinkage=0.06


Tree=82
num_leaves=4
num_cat=0
split_feature=9 4 12
split_gain=6.51535 2.45905 0.0252796
threshold=3.4600000000000004 92.500000000000014 491.50000000000006
decision_type=2 2 2
left_child=2 -2 -1
right_child=1 -3 -4
leaf_value=0.035820635664614887 0.01252332830113201 -0.028414311126446833 0.041562921580745822
leaf_weight=5.2757927626371366 7.4915709942579296 17.912291139364243 5.7877625823020935
leaf_count=20 21 72 20
internal_value=0 -0.272364 0.647077
internal_weight=0 25.4039 11.0636
internal_count=133 93 40
shrinkage=0.06


Tree=83
num_leaves=3
num_cat=0
split_feature=6 10
split_gain=7.84888 0.967378
threshold=0.97000000000000008 0.88500000000000012
decision_type=2 2
left_child=-1 -2
right_child=1 -3
leaf_value=0.039673186833087057 -0.0010949584607763943 -0.034558503107572934
leaf_weight=11.208189100027086 4.2191611379385021 11.829623550176619
leaf_count=27 22 84
internal_value=0 -0.429351
internal_weight=0 16.0488
internal_count=133 106
shrinkage=0.06


Tree=84
num_leaves=4
num_cat=0
split_feature=12 3 0
split_gain=6.27568 0.737815 0.376842
threshold=755.00000000000011 18.250000000000004 13.165000000000001
decision_type=2 2 2
left_child=2 -2 -1
right_child=1 -3 -4
leaf_value=-0.034720879249629855 0.036428020851851706 0.010984906874138521 -0.014405295159593363
leaf_weight=10.947402104735373 8.7118759155273455 7.7559102475643149 4.6974642574787131
leaf_count=59 32 22 20
internal_value=0 0.407416 -0.477017
internal_weight=0 16.4678 15.6449
internal_count=133 54 79
shrinkage=0.06


Tree=85
num_leaves=4
num_cat=0
split_feature=9 1 5
split_gain=6.13973 1.38809 0.536007
threshold=3.9450000000000007 1.6650000000000003 2.3800000000000003
decision_type=2 2 2
left_child=2 -2 -1
right_child=1 -3 -4
leaf_value=0.040600345226453338 0.0045332144793787926 -0.03040330281019564 0.017813954582557096
leaf_weight=7.8175032138824445 5.6432044059038189 14.914559945464132 7.0841549634933472
leaf_count=28 20 62 23
internal_value=0 -0.346884 0.496131
internal_weight=0 20.5578 14.9017
internal_count=133 82 51
shrinkage=0.06


Tree=86
num_leaves=3
num_cat=0
split_feature=6 12
split_gain=7.39503 0.00124324
threshold=1.2750000000000001 737.50000000000011
decision_type=2 2
left_child=-1 -2
right_child=1 -3
leaf_value=0.03095140764106832 -0.033178646155969826 -0.031971826985748145
leaf_weight=14.033143401145937 6.7971377745270711 5.6089506894350052
leaf_count=34 49 50
internal_value=0 -0.543884
internal_weight=0 12.4061
internal_count=133 99
shrinkage=0.06


Tree=87
num_leaves=4
num_cat=0
split_feature=6 0 11
split_gain=5.98865 1.98111 0.0595882
threshold=2.3150000000000004 13.235000000000001 2.7400000000000007
decision_type=2 2 2
left_child=2 -2 -1
right_child=1 -3 -4
leaf_value=-0.035315161708567258 -0.0041128998347413383 0.03631118975105925 -0.025969119119197324
leaf_weight=9.4863875508308428 7.1473765820264843 11.209286734461783 3.313765935599803
leaf_count=48 23 41 21
internal_value=0 0.34286 -0.54826
internal_weight=0 18.3567 12.8002
internal_count=133 64 69
shrinkage=0.06


Tree=88
num_leaves=4
num_cat=0
split_feature=0 12 1
split_gain=5.87664 1.37241 0.229411
threshold=12.520000000000001 635.00000000000011 1.6650000000000003
decision_type=2 2 2
left_child=2 -2 -1
right_child=1 -3 -4
leaf_value=0.042664036542457581 0.0021837473252302253 -0.028486003173009866 0.025802990656367576
leaf_weight=6.3616681694984418 8.2421795427799243 14.480605676770208 5.3464245051145554
leaf_count=21 25 66 21
internal_value=0 -0.289354 0.582742
internal_weight=0 22.7228 11.7081
internal_count=133 91 42
shrinkage=0.06


Tree=89
num_leaves=3
num_cat=0
split_feature=6 10
split_gain=7.01237 0.908181
threshold=0.97000000000000008 0.88500000000000012
decision_type=2 2
left_child=-1 -2
right_child=1 -3
leaf_value=0.038184745798234158 -0.0010596095466685797 -0.034392861045444194
leaf_weight=10.70617136359215 4.0262796282768241 10.931797303259371
leaf_count=27 22 84
internal_value=0 -0.423675
internal_weight=0 14.9581
internal_count=133 106
shrinkage=0.06


Tree=90
num_leaves=4
num_cat=0
split_feature=12 3 0
split_gain=5.61342 0.69453 0.373532
threshold=755.00000000000011 18.250000000000004 13.165000000000001
decision_type=2 2 2
left_child=2 -2 -1
right_child=1 -3 -4
leaf_value=-0.034471910953732456 0.035861126357151024 0.010436998940749332 -0.013639517829725492
leaf_weight=10.184948384761812 8.0711153894662839 7.4280958026647559 4.4532989710569373
leaf_count=59 32 22 20
internal_value=0 0.394608 -0.468903
internal_weight=0 15.4992 14.6382
internal_count=133 54 79
shrinkage=0.06


Tree=91
num_leaves=4
num_cat=0
split_feature=9 12 12
split_gain=5.58949 2.21897 0.0222712
threshold=3.4600000000000004 666.00000000000011 491.50000000000006
decision_type=2 2 2
left_child=2 -2 -1
right_child=1 -3 -4
leaf_value=0.035079305766756608 0.0046380169529294125 -0.03235035047366356 0.040752387804593802
leaf_weight=4.7234204411506635 10.733015418052675 12.804437324404715 5.2714332044124603
leaf_count=20 30 63 20
internal_value=0 -0.258063 0.634523
internal_weight=0 23.5375 9.99485
internal_count=133 93 40
shrinkage=0.06


Tree=92
num_leaves=3
num_cat=0
split_feature=6 12
split_gain=6.65035 0.00116852
threshold=1.2750000000000001 737.50000000000011
decision_type=2 2
left_child=-1 -2
right_child=1 -3
leaf_value=0.029739740659689883 -0.033010808310690962 -0.03179149109781923
leaf_weight=13.464759111404421 6.3316106349229795 5.1154365614056587
leaf_count=34 49 50
internal_value=0 -0.541099
internal_weight=0 11.447
internal_count=133 99
shrinkage=0.06


Tree=93
num_leaves=4
num_cat=0
split_feature=6 0 11
split_gain=5.31889 1.82963 0.0565622
threshold=2.3150000000000004 13.235000000000001 2.7400000000000007
decision_type=2 2 2
left_child=2 -2 -1
right_child=1 -3 -4
leaf_value=-0.034955387022115827 -0.004363825638274396 0.035552674952228233 -0.025460005554904252
leaf_weight=8.8318207114934939 6.8684641718864468 10.383273050189016 3.034336455166339
leaf_count=48 23 41 21
internal_value=0 0.327677 -0.542121
internal_weight=0 17.2517 11.8662
internal_count=133 64 69
shrinkage=0.06


Tree=94
num_leaves=4
num_cat=0
split_feature=9 4 12
split_gain=5.2755 2.14946 0.0226472
threshold=3.4600000000000004 92.500000000000014 491.50000000000006
decision_type=2 2 2
left_child=2 -2 -1
right_child=1 -3 -4
leaf_value=0.034757455899968731 0.012510427174402672 -0.027355387014226202 0.040602677418349553
leaf_weight=4.49711826443672 7.0157614946365383 15.911144748330114 5.0837889909744263
leaf_count=20 21 72 20
internal_value=0 -0.252604 0.630984
internal_weight=0 22.9269 9.58091
internal_count=133 93 40
shrinkage=0.06


Tree=95
num_leaves=3
num_cat=0
split_feature=6 12
split_gain=6.32957 0.00114813
threshold=1.2750000000000001 737.50000000000011
decision_type=2 2
left_child=-1 -2
right_child=1 -3
leaf_value=0.029203937785616543 -0.032943077164173371 -0.031708384146334014
leaf_weight=13.257984429597856 6.0938151553273183 4.8845512866973877
leaf_count=34 49 50
internal_value=0 -0.539896
internal_weight=0 10.9784
internal_count=133 99
shrinkage=0.06


Tree=96
num_leaves=4
num_cat=0
split_feature=12 3 0
split_gain=4.99638 0.652434 0.367993
threshold=755.00000000000011 18.250000000000004 13.165000000000001
decision_type=2 2 2
left_child=2 -2 -1
right_child=1 -3 -4
leaf_value=-0.034280812400496088 0.035290876672073028 0.0098290740037769702 -0.012967635745694501
leaf_weight=9.4441675096750277 7.4246148914098722 7.0755366086959839 4.2193325757980338
leaf_count=59 32 22 20
internal_value=0 0.381108 -0.461654
internal_weight=0 14.5002 13.6635
internal_count=133 54 79
shrinkage=0.06


Tree=97
num_leaves=4
num_cat=0
split_feature=0 1 1
split_gain=5.03032 1.25074 0.217728
threshold=12.520000000000001 1.675 1.6650000000000003
decision_type=2 2 2
left_child=2 -2 -1
right_child=1 -3 -4
leaf_value=0.041861029535485969 0.004545831727172516 -0.026748399126566274 0.024637145305694733
leaf_weight=5.8462774008512515 6.8207039684057262 14.10690017044544 4.8208162486553192
leaf_count=21 27 64 21
internal_value=0 -0.275817 0.56795
internal_weight=0 20.9276 10.6671
internal_count=133 91 42
shrinkage=0.06


Tree=98
num_leaves=3
num_cat=0
split_feature=6 10
split_gain=5.99843 0.862053
threshold=0.97000000000000008 0.88500000000000012
decision_type=2 2
left_child=-1 -2
right_child=1 -3
leaf_value=0.036438883225758313 -0.00032492702060186334 -0.034264762798559098
leaf_weight=10.01223146915436 3.7236033305525771 9.7445411905646306
leaf_count=27 22 84
internal_value=0 -0.414688
internal_weight=0 13.4681
internal_count=133 106
shrinkage=0.06


Tree=99
num_leaves=4
num_cat=0
split_feature=6 0 11
split_gain=4.78333 1.68055 0.0542842
threshold=2.3150000000000004 13.235000000000001 2.7400000000000007
decision_type=2 2 2
left_child=2 -2 -1
right_child=1 -3 -4
leaf_value=-0.034640035073889817 -0.0043165106049864047 0.034918366421396556 -0.02493881240576256
leaf_weight=8.2449640557169932 6.618212744593623 9.6763840317726117 2.7754394337534896
leaf_count=48 23 41 21
internal_value=0 0.316379 -0.536614
internal_weight=0 16.2946 11.0204
internal_count=133 64 69
shrinkage=0.06


Tree=100
num_leaves=4
num_cat=0
split_feature=9 12 12
split_gain=4.77428 1.99482 0.0208178
threshold=3.4600000000000004 666.00000000000011 491.50000000000006
decision_type=2 2 2
left_child=2 -2 -1
right_child=1 -3 -4
leaf_value=0.034366217992433674 0.0047008862203585019 -0.031672048048250218 0.040174570337602154
leaf_weight=4.1622437089681643 10.213838770985605 11.584854386746882 4.7640141695737839
leaf_count=20 30 63 20
internal_value=0 -0.243823 0.624436
internal_weight=0 21.7987 8.92626
internal_count=133 93 40
shrinkage=0.06


Tree=101
num_leaves=3
num_cat=0
split_feature=6 12
split_gain=5.70128 0.00107796
threshold=1.2750000000000001 737.50000000000011
decision_type=2 2
left_child=-1 -2
right_child=1 -3
leaf_value=0.028116789779177063 -0.032803013865943184 -0.031555707458251238
leaf_weight=12.684102147817613 5.679821811616419 4.4475541785359383
leaf_count=34 49 50
internal_value=0 -0.537587
internal_weight=0 10.1274
internal_count=133 99
shrinkage=0.06


Tree=102
num_leaves=4
num_cat=0
split_feature=12 3 0
split_gain=4.47333 0.614054 0.362046
threshold=755.00000000000011 18.250000000000004 13.165000000000001
decision_type=2 2 2
left_child=2 -2 -1
right_child=1 -3 -4
leaf_value=-0.034083935346711086 0.034831361205643278 0.0093241821311211576 -0.012303496678525084
leaf_weight=8.7830621264874953 6.8473114520311338 6.7442490756511688 3.9981577694416037
leaf_count=59 32 22 20
internal_value=0 0.369575 -0.454511
internal_weight=0 13.5916 12.7812
internal_count=133 54 79
shrinkage=0.06


Tree=103
num_leaves=4
num_cat=0
split_feature=9 1 5
split_gain=4.54036 1.13925 0.475467
threshold=3.9450000000000007 1.6650000000000003 2.3800000000000003
decision_type=2 2 2
left_child=2 -2 -1
right_child=1 -3 -4
leaf_value=0.039556096458657854 0.0051943135482107735 -0.028853603439554287 0.016075900036000412
leaf_weight=6.4585837125778216 4.9386150315403965 12.473229616880415 5.9787321537733078
leaf_count=28 20 62 23
internal_value=0 -0.31994 0.471149
internal_weight=0 17.4118 12.4373
internal_count=133 82 51
shrinkage=0.06


Tree=104
num_leaves=3
num_cat=0
split_feature=6 10
split_gain=5.3974 0.824869
threshold=0.97000000000000008 0.88500000000000012
decision_type=2 2
left_child=-1 -2
right_child=1 -3
leaf_value=0.035390834849667069 -5.7444188584051011e-05 -0.034122167721123538
leaf_weight=9.5381163358688372 3.5737650096416465 9.0127537585794908
leaf_count=27 22 84
internal_value=0 -0.407499
internal_weight=0 12.5865
internal_count=133 106
shrinkage=0.06


Tree=105
num_leaves=4
num_cat=0
split_feature=6 0 11
split_gain=4.28764 1.55375 0.0516371
threshold=2.3150000000000004 13.235000000000001 2.7400000000000007
decision_type=2 2 2
left_child=2 -2 -1
right_child=1 -3 -4
leaf_value=-0.03434282183714199 -0.0043569055352080093 0.034352316163012722 -0.024463821152349637
leaf_weight=7.6724095866084117 6.3850610703229895 8.9873762875795347 2.5337875783443451
leaf_count=48 23 41 21
internal_value=0 0.304569 -0.531504
internal_weight=0 15.3724 10.2062
internal_count=133 64 69
shrinkage=0.06


Tree=106
num_leaves=4
num_cat=0
split_feature=9 4 12
split_gain=4.3086 1.89617 0.0192788
threshold=3.4600000000000004 92.500000000000014 491.50000000000006
decision_type=2 2 2
left_child=2 -2 -1
right_child=1 -3 -4
leaf_value=0.033978100977644025 0.012658855359587693 -0.02642904085217988 0.039782652242886372
leaf_weight=3.8306635022163409 6.5262930542230633 14.164993606507776 4.4561266601085663
leaf_count=20 21 72 20
internal_value=0 -0.235004 0.618324
internal_weight=0 20.6913 8.28679
internal_count=133 93 40
shrinkage=0.06


Tree=107
num_leaves=3
num_cat=0
split_feature=6 12
split_gain=5.14435 0.00101688
threshold=1.2750000000000001 737.50000000000011
decision_type=2 2
left_child=-1 -2
right_child=1 -3
leaf_value=0.027119958097117692 -0.032682872158205936 -0.031419259839072969
leaf_weight=12.126079350709917 5.2868887148797494 4.0481929443776608
leaf_count=34 49 50
internal_value=0 -0.535582
internal_weight=0 9.33508
internal_count=133 99
shrinkage=0.06


Tree=108
num_leaves=4
num_cat=0
split_feature=12 3 0
split_gain=4.04172 0.574779 0.358272
threshold=755.00000000000011 18.250000000000004 13.165000000000001
decision_type=2 2 2
left_child=2 -2 -1
right_child=1 -3 -4
leaf_value=-0.033941157491920754 0.034475770103998757 0.0090272482659121134 -0.011602109997648442
leaf_weight=8.1760541275143641 6.3414100855588895 6.4395619034767151 3.7792211771011344
leaf_count=59 32 22 20
internal_value=0 0.360897 -0.447991
internal_weight=0 12.781 11.9553
internal_count=133 54 79
shrinkage=0.06


Tree=109
num_leaves=4
num_cat=0
split_feature=0 1 1
split_gain=4.13537 1.0683 0.19141
threshold=12.520000000000001 1.675 1.7150000000000001
decision_type=2 2 2
left_child=2 -2 -1
right_child=1 -3 -4
leaf_value=0.040537685831406538 0.0045690616760849243 -0.025790444148486726 0.023248797975477659
leaf_weight=5.3548663109540957 6.2632784172892597 12.500408641993998 4.0480837672948837
leaf_count=22 27 64 20
internal_value=0 -0.260942 0.551577
internal_weight=0 18.7637 9.40295
internal_count=133 91 42
shrinkage=0.06


Tree=110
num_leaves=3
num_cat=0
split_feature=6 10
split_gain=4.85433 0.773227
threshold=0.97000000000000008 0.88500000000000012
decision_type=2 2
left_child=-1 -2
right_child=1 -3
leaf_value=0.03434839899919543 -5.9250795768479178e-05 -0.033989025674282185
leaf_weight=9.0425873547792452 3.406440805643796 8.3325304985046369
leaf_count=27 22 84
internal_value=0 -0.402387
internal_weight=0 11.739
internal_count=133 106
shrinkage=0.06


Tree=111
num_leaves=4
num_cat=0
split_feature=6 12 9
split_gain=3.88323 2.41682 0.00373701
threshold=2.1800000000000002 712.00000000000011 3.6500000000000008
decision_type=2 2 2
left_child=2 -2 -1
right_child=1 -3 -4
leaf_value=-0.031664414243482812 -0.024243104961765616 0.030437698970918536 -0.03449202223248847
leaf_weight=2.2777722626924533 3.9116003885865203 11.36293016374111 6.4398693218827248
leaf_count=26 20 50 37
internal_value=0 0.273911 -0.562554
internal_weight=0 15.2745 8.71764
internal_count=133 70 63
shrinkage=0.06


Tree=112
num_leaves=4
num_cat=0
split_feature=9 12 12
split_gain=3.91727 1.76453 0.0176592
threshold=3.4600000000000004 666.00000000000011 491.50000000000006
decision_type=2 2 2
left_child=2 -2 -1
right_child=1 -3 -4
leaf_value=0.033683861382246869 0.0049811790571480056 -0.030985457411846735 0.039443072351397858
leaf_weight=3.5427262634038952 9.4851075857877749 10.181801050901411 4.175897553563118
leaf_count=20 30 63 20
internal_value=0 -0.22732 0.613328
internal_weight=0 19.6669 7.71862
internal_count=133 93 40
shrinkage=0.06


Tree=113
num_leaves=3
num_cat=0
split_feature=6 12
split_gain=4.65277 0.000942098
threshold=1.2750000000000001 737.50000000000011
decision_type=2 2
left_child=-1 -2
right_child=1 -3
leaf_value=0.026220953592409797 -0.032566321030769708 -0.0312981139634219
leaf_weight=11.566727474331858 4.9297300130128843 3.6849922128021717
leaf_count=34 49 50
internal_value=0 -0.533731
internal_weight=0 8.61472
internal_count=133 99
shrinkage=0.06


Tree=114
num_leaves=4
num_cat=0
split_feature=5 12 9
split_gain=3.65672 3.19432 0.00360626
threshold=2.3100000000000001 666.00000000000011 3.6500000000000008
decision_type=2 2 2
left_child=2 -2 -1
right_child=1 -3 -4
leaf_value=-0.031523388886522556 -0.034690232361190412 0.031291196342054468 -0.034525527198888163
leaf_weight=1.8564712479710594 3.4425629526376715 11.350288182497023 6.4279486164450645
leaf_count=23 21 52 37
internal_value=0 0.265602 -0.564213
internal_weight=0 14.7929 8.28442
internal_count=133 73 60
shrinkage=0.06


Tree=115
num_leaves=4
num_cat=0
split_feature=9 0 5
split_gain=3.71362 1.02184 0.433165
threshold=3.9450000000000007 13.165000000000001 2.3800000000000003
decision_type=2 2 2
left_child=2 -2 -1
right_child=1 -3 -4
leaf_value=0.038882181214270076 -0.0026129928897718623 -0.033376276617263931 0.015048705097825011
leaf_weight=5.6727349385619181 7.6649993956089002 7.8863870427012444 5.3196006044745445
leaf_count=28 26 56 23
internal_value=0 -0.30356 0.455805
internal_weight=0 15.5514 10.9923
internal_count=133 82 51
shrinkage=0.06


Tree=116
num_leaves=3
num_cat=0
split_feature=6 12
split_gain=4.39917 0.000913315
threshold=1.2750000000000001 737.50000000000011
decision_type=2 2
left_child=-1 -2
right_child=1 -3
leaf_value=0.025661445093079507 -0.032507441789508082 -0.031229346783480421
leaf_weight=11.326301991939546 4.738683767616747 3.4990032874047756
leaf_count=34 49 50
internal_value=0 -0.532743
internal_weight=0 8.23769
internal_count=133 99
shrinkage=0.06


Tree=117
num_leaves=4
num_cat=0
split_feature=5 12 9
split_gain=3.43467 3.03606 0.00315899
threshold=2.3100000000000001 666.00000000000011 3.6500000000000008
decision_type=2 2 2
left_child=2 -2 -1
right_child=1 -3 -4
leaf_value=-0.031425723339997623 -0.034564483368858728 0.030821034998093563 -0.034316419134505914
leaf_weight=1.7454206198453928 3.3342888280749312 10.959842242300509 6.1786514818668365
leaf_count=23 21 52 37
internal_value=0 0.259484 -0.561328
internal_weight=0 14.2941 7.92407
internal_count=133 73 60
shrinkage=0.06


Tree=118
num_leaves=3
num_cat=0
split_feature=12 9
split_gain=3.55304 2.51036
threshold=525.00000000000011 3.9450000000000007
decision_type=2 2
left_child=-1 -2
right_child=1 -3
leaf_value=0.0316249473503201 0.017911362344708602 -0.031420283791039311
leaf_weight=8.8068273141980189 5.5045560449361828 11.413242153823374
leaf_count=38 23 72
internal_value=0 -0.256154
internal_weight=0 16.9178
internal_count=133 95
shrinkage=0.06


Tree=119
num_leaves=3
num_cat=0
split_feature=6 10
split_gain=4.14613 0.725409
threshold=0.97000000000000008 0.88500000000000012
decision_type=2 2
left_child=-1 -2
right_child=1 -3
leaf_value=0.032997333027319498 0.00041473141263483049 -0.033865602027242557
leaf_weight=8.340897276997568 3.1754717081785184 7.4031460285186768
leaf_count=27 22 84
internal_value=0 -0.392923
internal_weight=0 10.5786
internal_count=133 106
shrinkage=0.06


Tree=120
num_leaves=4
num_cat=0
split_feature=5 12 9
split_gain=3.23871 2.85511 0.00267891
threshold=2.3100000000000001 666.00000000000011 3.6500000000000008
decision_type=2 2 2
left_child=2 -2 -1
right_child=1 -3 -4
leaf_value=-0.031359746456404783 -0.034361173755350964 0.030365363980287434 -0.034085432544797227
leaf_weight=1.6630257032811666 3.1943741813302031 10.57598067820072 5.9157178625464439
leaf_count=23 21 52 37
internal_value=0 0.255841 -0.558122
internal_weight=0 13.7704 7.57874
internal_count=133 73 60
shrinkage=0.06


Tree=121
num_leaves=4
num_cat=0
split_feature=9 4 12
split_gain=3.40398 1.58579 0.0183319
threshold=3.4600000000000004 94.500000000000014 491.50000000000006
decision_type=2 2 2
left_child=2 -2 -1
right_child=1 -3 -4
leaf_value=0.033107377738314112 0.010160143252009328 -0.02672646336979213 0.039329967800291146
leaf_weight=3.067962326109412 6.6798914223909405 11.282495908439158 3.8347536399960518
leaf_count=20 26 67 20
internal_value=0 -0.216817 0.609405
internal_weight=0 17.9624 6.90272
internal_count=133 93 40
shrinkage=0.06


Tree=122
num_leaves=3
num_cat=0
split_feature=6 12
split_gain=3.91725 0.000803734
threshold=1.2750000000000001 737.50000000000011
decision_type=2 2
left_child=-1 -2
right_child=1 -3
leaf_value=0.024612557119310846 -0.032355940435432773 -0.031099768780513775
leaf_weight=10.715882480144503 4.3949771374464026 3.1463644281029701
leaf_count=34 49 50
internal_value=0 -0.530531
internal_weight=0 7.54134
internal_count=133 99
shrinkage=0.06


Tree=123
num_leaves=4
num_cat=0
split_feature=5 12 9
split_gain=3.0585 2.69693 0.00238598
threshold=2.3100000000000001 666.00000000000011 3.6500000000000008
decision_type=2 2 2
left_child=2 -2 -1
right_child=1 -3 -4
leaf_value=-0.031275151306204355 -0.034249271029513965 0.029916392861488304 -0.033919392582442524
leaf_weight=1.565914992243054 3.0674766078591338 10.197349406778811 5.7009223327040672
leaf_count=23 21 52 37
internal_value=0 0.251303 -0.555827
internal_weight=0 13.2648 7.26684
internal_count=133 73 60
shrinkage=0.06


Tree=124
num_leaves=4
num_cat=0
split_feature=9 4 12
split_gain=3.2284 1.48825 0.0184064
threshold=3.4600000000000004 92.500000000000014 491.50000000000006
decision_type=2 2 2
left_child=2 -2 -1
right_child=1 -3 -4
leaf_value=0.032912137922961625 0.012154884694284903 -0.02504831211586616 0.039286387842125105
leaf_weight=2.9059950709342983 5.7920110598206547 11.670937471091746 3.7165952250361443
leaf_count=20 21 72 20
internal_value=0 -0.211816 0.608156
internal_weight=0 17.4629 6.62259
internal_count=133 93 40
shrinkage=0.06


Tree=125
num_leaves=3
num_cat=0
split_feature=6 10
split_gain=3.71165 0.679494
threshold=0.97000000000000008 0.88500000000000012
decision_type=2 2
left_child=-1 -2
right_child=1 -3
leaf_value=0.03204566255584318 0.00049097554801907396 -0.033776828539040557
leaf_weight=7.8464078456163433 2.9995644353330118 6.8181987069547176
leaf_count=27 22 84
internal_value=0 -0.388453
internal_weight=0 9.81776
internal_count=133 106
shrinkage=0.06


Tree=126
num_leaves=4
num_cat=0
split_feature=12 5 9
split_gain=2.89392 2.3466 0.00286991
threshold=666.00000000000011 2.3800000000000003 3.3250000000000006
decision_type=2 2 2
left_child=2 -2 -1
right_child=1 -3 -4
leaf_value=-0.031403465284897375 -0.030639200028868472 0.029434729257591899 -0.034001983624631187
leaf_weight=2.2646660134196308 3.0885797664523116 9.6687354519963247 4.7173015438020229
leaf_count=30 20 51 32
internal_value=0 0.248178 -0.552652
internal_weight=0 12.7573 6.98197
internal_count=133 71 62
shrinkage=0.06


Tree=127
num_leaves=4
num_cat=0
split_feature=9 12 12
split_gain=3.05649 1.42379 0.0175717
threshold=3.4600000000000004 666.00000000000011 491.50000000000006
decision_type=2 2 2
left_child=2 -2 -1
right_child=1 -3 -4
leaf_value=0.032742646210508611 0.0047483105620268326 -0.030012640047074917 0.039106814946247799
leaf_weight=2.7623200267553356 8.5788856744766253 8.3910318911075574 3.5937559306621552
leaf_count=20 30 63 20
internal_value=0 -0.207329 0.605683
internal_weight=0 16.9699 6.35608
internal_count=133 93 40
shrinkage=0.06


Tree=128
num_leaves=3
num_cat=0
split_feature=10 1
split_gain=3.54405 0.74236
threshold=0.81500000000000006 2.0650000000000004
decision_type=2 2
left_child=-1 -2
right_child=1 -3
leaf_value=0.032053824394693238 -0.034696347840369457 0.00091820416990092964
leaf_weight=7.5283846780657795 6.4135832823812944 3.1378274261951447
leaf_count=32 78 23
internal_value=0 -0.383271
internal_weight=0 9.55141
internal_count=133 101
shrinkage=0.06


Tree=129
num_leaves=4
num_cat=0
split_feature=12 5 9
split_gain=2.73234 2.20493 0.00264312
threshold=666.00000000000011 2.3800000000000003 3.3250000000000006
decision_type=2 2 2
left_child=2 -2 -1
right_child=1 -3 -4
leaf_value=-0.031316555006953677 -0.030337361034851851 0.028994557913297799 -0.033875165952927569
leaf_weight=2.1346731185913113 2.976837594062089 9.2973344698548299 4.5548474714159966
leaf_count=30 20 51 32
internal_value=0 0.243415 -0.550978
internal_weight=0 12.2742 6.68952
internal_count=133 71 62
shrinkage=0.06


Tree=130
num_leaves=4
num_cat=0
split_feature=9 4 12
split_gain=2.88649 1.35062 0.0158567
threshold=3.4600000000000004 94.500000000000014 491.50000000000006
decision_type=2 2 2
left_child=2 -2 -1
right_child=1 -3 -4
leaf_value=0.032598718211927176 0.0096111588671450102 -0.025705597089135571 0.038771257368801243
leaf_weight=2.6346260756254223 6.3197729438543346 10.173985429108141 3.4736791774630547
leaf_count=20 26 67 20
internal_value=0 -0.202893 0.601815
internal_weight=0 16.4938 6.10831
internal_count=133 93 40
shrinkage=0.06


Tree=131
num_leaves=3
num_cat=0
split_feature=6 12
split_gain=3.38747 0.000732449
threshold=1.2750000000000001 737.50000000000011
decision_type=2 2
left_child=-1 -2
right_child=1 -3
leaf_value=0.023601130731793738 -0.032221319976407141 -0.030939904501479352
leaf_weight=9.9023108333349246 3.9837359525263301 2.690270010381937
leaf_count=34 49 50
internal_value=0 -0.528413
internal_weight=0 6.67401
internal_count=133 99
shrinkage=0.06


Tree=132
num_leaves=4
num_cat=0
split_feature=12 5 9
split_gain=2.59406 2.07079 0.00251595
threshold=666.00000000000011 2.3800000000000003 3.6500000000000008
decision_type=2 2 2
left_child=2 -2 -1
right_child=1 -3 -4
leaf_value=-0.031399927163867733 -0.030015469490473241 0.02857134442799739 -0.033875061805863978
leaf_weight=2.3077619019895819 2.8662032037973395 8.9659346342086774 4.1141565889120102
leaf_count=33 20 51 29
internal_value=0 0.239656 -0.54976
internal_weight=0 11.8321 6.42192
internal_count=133 71 62
shrinkage=0.06


Tree=133
num_leaves=4
num_cat=0
split_feature=0 1 1
split_gain=2.75219 0.857212 0.161897
threshold=12.520000000000001 1.675 1.7150000000000001
decision_type=2 2 2
left_child=2 -2 -1
right_child=1 -3 -4
leaf_value=0.038743915667111169 0.0061856511238529595 -0.024443412840315509 0.020564501606442694
leaf_weight=4.2284997105598476 4.984986148774623 9.6711991354823095 3.0252036228775978
leaf_count=22 27 64 20
internal_value=0 -0.23376 0.519368
internal_weight=0 14.6562 7.2537
internal_count=133 91 42
shrinkage=0.06


Tree=134
num_leaves=3
num_cat=0
split_feature=10 1
split_gain=3.22308 0.703681
threshold=0.81500000000000006 2.0650000000000004
decision_type=2 2
left_child=-1 -2
right_child=1 -3
leaf_value=0.031465718286133045 -0.034596130542562567 0.0010951246076391504
leaf_weight=7.1110050082206753 5.9489444959908706 2.9872042834758759
leaf_count=32 78 23
internal_value=0 -0.377752
internal_weight=0 8.93615
internal_count=133 101
shrinkage=0.06


Tree=135
num_leaves=4
num_cat=0
split_feature=12 5 9
split_gain=2.46511 1.94727 0.00222376
threshold=666.00000000000011 2.3800000000000003 4.3800000000000017
decision_type=2 2 2
left_child=2 -2 -1
right_child=1 -3 -4
leaf_value=-0.031668528766382903 -0.029704148526903659 0.028130178719251178 -0.033950718523907117
leaf_weight=2.9162489566952017 2.7619098015129557 8.6905496194958669 3.2499883286654949
leaf_count=38 20 51 24
internal_value=0 0.236378 -0.547856
internal_weight=0 11.4525 6.16624
internal_count=133 71 62
shrinkage=0.06


Tree=136
num_leaves=4
num_cat=0
split_feature=9 0 5
split_gain=2.64082 0.806113 0.323789
threshold=3.9450000000000007 13.165000000000001 2.3800000000000003
decision_type=2 2 2
left_child=2 -2 -1
right_child=1 -3 -4
leaf_value=0.037471147448418292 -0.0021084643083824346 -0.03258546699799874 0.014400115725467236
leaf_weight=4.4873835146427172 6.5115030333399755 6.0061276145279408 4.2773789167404175
leaf_count=28 26 56 23
internal_value=0 -0.278862 0.436867
internal_weight=0 12.5176 8.76476
internal_count=133 82 51
shrinkage=0.06


Tree=137
num_leaves=3
num_cat=0
split_feature=6 12
split_gain=3.07918 0.000668652
threshold=1.2750000000000001 737.50000000000011
decision_type=2 2
left_child=-1 -2
right_child=1 -3
leaf_value=0.022965047098078568 -0.032128589375710601 -0.030850196457510224
leaf_weight=9.3662269711494428 3.7404407151043424 2.429642615839839
leaf_count=34 49 50
internal_value=0 -0.527086
internal_weight=0 6.17008
internal_count=133 99
shrinkage=0.06


Tree=138
num_leaves=3
num_cat=0
split_feature=12 6
split_gain=2.34946 0.908004
threshold=1000.0000000000001 2.3150000000000004
decision_type=2 2
left_child=1 -1
right_child=-2 -3
leaf_value=-0.032469794310681345 0.032950563939062559 0.00037312504496037275
leaf_weight=6.2161495741456765 4.8499860540032378 5.9132071658968925
leaf_count=68 35 30
internal_value=0 -0.274308
internal_weight=0 12.1294
internal_count=133 98
shrinkage=0.06


Tree=139
num_leaves=4
num_cat=0
split_feature=9 12 12
split_gain=2.54213 1.19855 0.0147691
threshold=3.4600000000000004 666.00000000000011 491.50000000000006
decision_type=2 2 2
left_child=2 -2 -1
right_child=1 -3 -4
leaf_value=0.032267539017553221 0.0045017047402375627 -0.029294292611569742 0.038566717972696861
leaf_weight=2.3061818853020695 7.8862011879682523 7.2512711174786091 3.1981839686632156
leaf_count=20 30 63 20
internal_value=0 -0.194792 0.598792
internal_weight=0 15.1375 5.50437
internal_count=133 93 40
shrinkage=0.06


Tree=140
num_leaves=3
num_cat=0
split_feature=6 10
split_gain=2.91886 0.561348
threshold=0.97000000000000008 0.88500000000000012
decision_type=2 2
left_child=-1 -2
right_child=1 -3
leaf_value=0.030478005121240753 7.2896855336091235e-05 -0.033426538528669336
leaf_weight=6.7674045711755761 2.6524398587644082 5.6083628628402948
leaf_count=27 22 84
internal_value=0 -0.377838
internal_weight=0 8.2608
internal_count=133 106
shrinkage=0.06


Tree=141
num_leaves=4
num_cat=0
split_feature=12 5 9
split_gain=2.25287 1.73671 0.00209381
threshold=666.00000000000011 2.3800000000000003 4.3800000000000017
decision_type=2 2 2
left_child=2 -2 -1
right_child=1 -3 -4
leaf_value=-0.031539488980676426 -0.029325901574030502 0.027487441884611549 -0.033838909280373711
leaf_weight=2.660525634884837 2.5464985072612754 8.0928369984030706 3.0713990740478039
leaf_count=38 20 51 24
internal_value=0 0.231488 -0.546194
internal_weight=0 10.6393 5.73192
internal_count=133 71 62
shrinkage=0.06


Tree=142
num_leaves=4
num_cat=0
split_feature=9 4 12
split_gain=2.40857 1.16676 0.0135958
threshold=3.4600000000000004 94.500000000000014 491.50000000000006
decision_type=2 2 2
left_child=2 -2 -1
right_child=1 -3 -4
leaf_value=0.032174899726781427 0.0096637577841569705 -0.024914302774725509 0.038341955242833341
leaf_weight=2.2071775868535068 5.7656905427575103 8.9916120134294015 3.0865677669644356
leaf_count=20 26 67 20
internal_value=0 -0.190077 0.596178
internal_weight=0 14.7573 5.29375
internal_count=133 93 40
shrinkage=0.06


Tree=143
num_leaves=3
num_cat=0
split_feature=10 1
split_gain=2.79498 0.622334
threshold=0.81500000000000006 2.0650000000000004
decision_type=2 2
left_child=-1 -2
right_child=1 -3
leaf_value=0.030584482856809623 -0.034306606478593037 0.00081338546287652305
leaf_weight=6.5001064129173765 5.3061711248010379 2.7618766315281391
leaf_count=32 78 23
internal_value=0 -0.371404
internal_weight=0 8.06805
internal_count=133 101
shrinkage=0.06


Tree=144
num_leaves=4
num_cat=0
split_feature=12 5 9
split_gain=2.14585 1.63042 0.00199736
threshold=666.00000000000011 2.3800000000000003 4.3800000000000017
decision_type=2 2 2
left_child=2 -2 -1
right_child=1 -3 -4
leaf_value=-0.031469574827075998 -0.029004361968664006 0.027116536211530564 -0.033763590687342526
leaf_weight=2.5272549297660598 2.4472181685268861 7.8144127950072289 2.9745514243841171
leaf_count=38 20 51 24
internal_value=0 0.228878 -0.545164
internal_weight=0 10.2616 5.50181
internal_count=133 71 62
shrinkage=0.06


Tree=145
num_leaves=3
num_cat=0
split_feature=12 9
split_gain=2.29695 1.78149
threshold=525.00000000000011 3.9450000000000007
decision_type=2 2
left_child=-1 -2
right_child=1 -3
leaf_value=0.029187976704567107 0.017339938345748051 -0.030219495817479122
leaf_weight=6.7988446131348637 4.294479511678218 8.345245458185671
leaf_count=38 23 72
internal_value=0 -0.234345
internal_weight=0 12.6397
internal_count=133 95
shrinkage=0.06


Tree=146
num_leaves=3
num_cat=0
split_feature=6 12
split_gain=2.69275 0.000592634
threshold=1.2750000000000001 737.50000000000011
decision_type=2 2
left_child=-1 -2
right_child=1 -3
leaf_value=0.02222158086458479 -0.032020606131053113 -0.030737309023754211
leaf_weight=8.6191380172967893 3.4003252275288114 2.0928456839174032
leaf_count=34 49 50
internal_value=0 -0.525528
internal_weight=0 5.49317
internal_count=133 99
shrinkage=0.06


Tree=147
num_leaves=4
num_cat=0
split_feature=12 5 9
split_gain=2.02527 1.5325 0.00174862
threshold=666.00000000000011 2.3800000000000003 4.3800000000000017
decision_type=2 2 2
left_child=2 -2 -1
right_child=1 -3 -4
leaf_value=-0.031394192142224678 -0.028719443849627331 0.026675530701422586 -0.033590267625886794
leaf_weight=2.4026526790112266 2.3602150827646238 7.546188086271286 2.8578657917678356
leaf_count=38 20 51 24
internal_value=0 0.224627 -0.543121
internal_weight=0 9.9064 5.26052
internal_count=133 71 62
shrinkage=0.06


Tree=148
num_leaves=4
num_cat=0
split_feature=9 12 12
split_gain=2.20897 1.04894 0.0126954
threshold=3.4600000000000004 666.00000000000011 491.50000000000006
decision_type=2 2 2
left_child=2 -2 -1
right_child=1 -3 -4
leaf_value=0.031946342514835122 0.0042905914149872987 -0.028769495768774144 0.038151362983189677
leaf_weight=1.9948874488472965 7.4079535305500013 6.4746997840702534 2.9312399625778198
leaf_count=20 30 63 20
internal_value=0 -0.18547 0.593976
internal_weight=0 13.8827 4.92613
internal_count=133 93 40
shrinkage=0.06


Tree=149
num_leaves=3
num_cat=0
split_feature=10 1
split_gain=2.53412 0.58449
threshold=0.81500000000000006 2.0650000000000004
decision_type=2 2
left_child=-1 -2
right_child=1 -3
leaf_value=0.030031283094727496 -0.034192615573794292 0.0009025356142058562
leaf_weight=6.0873033553361893 4.9230025429278612 2.6162881888449192
leaf_count=32 78 23
internal_value=0 -0.366898
internal_weight=0 7.53929
internal_count=133 101
shrinkage=0.06


Tree=150
num_leaves=4
num_cat=0
split_feature=12 5 9
split_gain=1.91552 1.44136 0.00161218
threshold=666.00000000000011 2.3800000000000003 4.3800000000000017
decision_type=2 2 2
left_child=2 -2 -1
right_child=1 -3 -4
leaf_value=-0.031330969004113599 -0.02845874217586461 0.026270613904385481 -0.033486510041867187
leaf_weight=2.2808627169579276 2.2751463241875154 7.2610141858458519 2.7614066526293755
leaf_count=38 20 51 24
internal_value=0 0.220221 -0.541858
internal_weight=0 9.53616 5.04227
internal_count=133 71 62
shrinkage=0.06


Tree=151
num_leaves=4
num_cat=0
split_feature=9 4 12
split_gain=2.09402 1.01036 0.0115457
threshold=3.4600000000000004 94.500000000000014 491.50000000000006
decision_type=2 2 2
left_child=2 -2 -1
right_child=1 -3 -4
leaf_value=0.031850478642368701 0.0092518514145449159 -0.02427494957833411 0.037894631005705275
leaf_weight=1.9015845730900787 5.3807948827743521 8.1176635660231096 2.8325218334794044
leaf_count=20 26 67 20
internal_value=0 -0.18184 0.591114
internal_weight=0 13.4985 4.73411
internal_count=133 93 40
shrinkage=0.06


Tree=152
num_leaves=3
num_cat=0
split_feature=6 12
split_gain=2.44805 0.00050547
threshold=1.2750000000000001 737.50000000000011
decision_type=2 2
left_child=-1 -2
right_child=1 -3
leaf_value=0.021653627959726914 -0.031909341411247572 -0.030670767404452254
leaf_weight=8.1575129479169828 3.1725876759737739 1.8945316281169651
leaf_count=34 49 50
internal_value=0 -0.524104
internal_weight=0 5.06712
internal_count=133 99
shrinkage=0.06


Tree=153
num_leaves=3
num_cat=0
split_feature=12 6
split_gain=1.83437 0.689533
threshold=1000.0000000000001 2.3150000000000004
decision_type=2 2
left_child=1 -1
right_child=-2 -3
leaf_value=-0.03201641957971596 0.032327718922198219 -0.00073081747418816902
leaf_weight=4.9891260843723995 3.8943635821342477 5.1581385657191277
leaf_count=68 35 30
internal_value=0 -0.268551
internal_weight=0 10.1473
internal_count=133 98
shrinkage=0.06


Tree=154
num_leaves=4
num_cat=0
split_feature=9 0 5
split_gain=2.01244 0.661125 0.257881
threshold=3.9450000000000007 13.165000000000001 2.3800000000000003
decision_type=2 2 2
left_child=2 -2 -1
right_child=1 -3 -4
leaf_value=0.036632059708317614 -0.0018196018619547332 -0.032120028024292625 0.013985054293076307
leaf_weight=3.6788671910762814 5.6722641065716726 4.7742239162325859 3.5633357167243958
leaf_count=28 26 56 23
internal_value=0 -0.261124 0.42482
internal_weight=0 10.4465 7.2422
internal_count=133 82 51
shrinkage=0.06


Tree=155
num_leaves=3
num_cat=0
split_feature=6 10
split_gain=2.34006 0.467821
threshold=0.97000000000000008 0.88500000000000012
decision_type=2 2
left_child=-1 -2
right_child=1 -3
leaf_value=0.0292966015464311 -0.00020968355247710509 -0.033193917128936844
leaf_weight=5.84445820748806 2.3227125499397516 4.6411054469645023
leaf_count=27 22 84
internal_value=0 -0.369873
internal_weight=0 6.96382
internal_count=133 106
shrinkage=0.06


Tree=156
num_leaves=4
num_cat=0
split_feature=12 5 9
split_gain=1.7683 1.2845 0.00155157
threshold=666.00000000000011 2.3800000000000003 4.3800000000000017
decision_type=2 2 2
left_child=2 -2 -1
right_child=1 -3 -4
leaf_value=-0.03123096282828447 -0.02808237334887655 0.025702290691489833 -0.033425723968597519
leaf_weight=2.0815622732043275 2.090056059882043 6.7970861420035362 2.6179519668221474
leaf_count=38 20 51 24
internal_value=0 0.217556 -0.540893
internal_weight=0 8.88714 4.69951
internal_count=133 71 62
shrinkage=0.06


Tree=157
num_leaves=4
num_cat=0
split_feature=9 12 12
split_gain=1.92099 0.938528 0.0107435
threshold=3.4600000000000004 737.50000000000011 491.50000000000006
decision_type=2 2 2
left_child=2 -2 -1
right_child=1 -3 -4
leaf_value=0.031695042698941404 0.0016549286531254382 -0.032189974480523707 0.037757679079617044
leaf_weight=1.7354974262416387 8.1741078309714776 4.6148535311222068 2.6729202270507812
leaf_count=20 38 55 20
internal_value=0 -0.175965 0.589516
internal_weight=0 12.789 4.40842
internal_count=133 93 40
shrinkage=0.06


Tree=158
num_leaves=3
num_cat=0
split_feature=6 12
split_gain=2.22381 0.000453325
threshold=1.2750000000000001 737.50000000000011
decision_type=2 2
left_child=-1 -2
right_child=1 -3
leaf_value=0.021067113875259981 -0.031836394311602061 -0.030610602966807742
leaf_weight=7.7056848853826523 2.9590636547654867 1.7159712295979259
leaf_count=34 49 50
internal_value=0 -0.523108
internal_weight=0 4.67503
internal_count=133 99
shrinkage=0.06


Tree=159
num_leaves=4
num_cat=0
split_feature=12 5 9
split_gain=1.67238 1.20651 0.00143513
threshold=666.00000000000011 2.3800000000000003 4.3800000000000017
decision_type=2 2 2
left_child=2 -2 -1
right_child=1 -3 -4
leaf_value=-0.03117918473555106 -0.027827597084185203 0.025287870691983849 -0.033335699511105786
leaf_weight=1.9778854958713059 2.0145638529211265 6.5292497016489506 2.5345342420041561
leaf_count=38 20 51 24
internal_value=0 0.212728 -0.539841
internal_weight=0 8.54381 4.51242
internal_count=133 71 62
shrinkage=0.06


Tree=160
num_leaves=4
num_cat=0
split_feature=9 4 12
split_gain=1.83599 0.905615 0.0105336
threshold=3.4600000000000004 92.500000000000014 491.50000000000006
decision_type=2 2 2
left_child=2 -2 -1
right_child=1 -3 -4
leaf_value=0.031593130070523244 0.011068913407686917 -0.022583333414679628 0.037733608865878759
leaf_weight=1.6398907080292726 4.5220069885253888 7.9226127415895462 2.6006656736135483
leaf_count=20 21 72 20
internal_value=0 -0.172585 0.589316
internal_weight=0 12.4446 4.24056
internal_count=133 93 40
shrinkage=0.06


Tree=161
num_leaves=4
num_cat=0
split_feature=10 6 0
split_gain=2.15606 1.1775 0.038605
threshold=0.91500000000000015 1.4950000000000003 13.680000000000001
decision_type=2 2 2
left_child=1 -1 -2
right_child=2 -3 -4
leaf_value=0.031479590498065382 -0.034379871476751027 -0.031828644807315967 -0.019783593102797762
leaf_weight=6.2920374423265457 3.6611382309347391 1.271359199658036 0.79374669864773739
leaf_count=30 55 22 26
internal_value=0 0.347298 -0.529653
internal_weight=0 7.5634 4.45488
internal_count=133 52 81
shrinkage=0.06


Tree=162
num_leaves=4
num_cat=0
split_feature=12 5 9
split_gain=1.59412 1.12894 0.00135389
threshold=666.00000000000011 2.3800000000000003 4.3800000000000017
decision_type=2 2 2
left_child=2 -2 -1
right_child=1 -3 -4
leaf_value=-0.031136365063703542 -0.027503975459531246 0.024911982682290786 -0.033276364485171024
leaf_weight=1.8830218520015485 1.9325708243995883 6.3064721152186394 2.4477507062256336
leaf_count=38 20 51 24
internal_value=0 0.210286 -0.539098
internal_weight=0 8.23904 4.33077
internal_count=133 71 62
shrinkage=0.06


Tree=163
num_leaves=4
num_cat=0
split_feature=9 6 5
split_gain=1.74212 0.634275 0.228709
threshold=3.9450000000000007 1.2750000000000001 2.3800000000000003
decision_type=2 2 2
left_child=2 -2 -1
right_child=1 -3 -4
leaf_value=0.036173063158092954 -0.033169882086248333 -0.0018852168727236612 0.013777759344830566
leaf_weight=3.3126382976770428 4.0287557356059533 5.5427867658436298 3.2543416544795036
leaf_count=28 30 52 23
internal_value=0 -0.250887 0.417914
internal_weight=0 9.57154 6.56698
internal_count=133 82 51
shrinkage=0.06


Tree=164
num_leaves=4
num_cat=0
split_feature=10 6 0
split_gain=2.05395 1.18696 0.148627
threshold=0.89800000000000013 1.4950000000000003 13.600000000000001
decision_type=2 2 2
left_child=1 -1 -2
right_child=2 -3 -4
leaf_value=0.034288416902500653 -0.034403311525831891 -0.031788112881674165 -0.0094829236608012287
leaf_weight=5.5713126659393311 3.6941083129495382 1.1872471943497656 1.1236336920410392
leaf_count=28 54 21 30
internal_value=0 0.378017 -0.47652
internal_weight=0 6.75856 4.81774
internal_count=133 49 84
shrinkage=0.06


Tree=165
num_leaves=4
num_cat=0
split_feature=12 5 9
split_gain=1.5385 1.05562 0.00128075
threshold=666.00000000000011 2.3800000000000003 4.3800000000000017
decision_type=2 2 2
left_child=2 -2 -1
right_child=1 -3 -4
leaf_value=-0.03107919816634323 -0.027083850709634066 0.024585451977597574 -0.03320546941938763
leaf_weight=1.7902391552925117 1.8500143531709889 6.173780795186758 2.3698407374322414
leaf_count=38 20 51 24
internal_value=0 0.211204 -0.538174
internal_weight=0 8.0238 4.16008
internal_count=133 71 62
shrinkage=0.06


Tree=166
num_leaves=4
num_cat=0
split_feature=9 12 12
split_gain=1.66772 0.856607 0.00930057
threshold=3.4600000000000004 666.00000000000011 491.50000000000006
decision_type=2 2 2
left_child=2 -2 -1
right_child=1 -3 -4
leaf_value=0.031431363516362693 0.0045341729315586006 -0.028117193733976441 0.037466848868936593
leaf_weight=1.4770948216319095 6.4657309204339963 5.2341247275471687 2.4333625659346581
leaf_count=20 30 63 20
internal_value=0 -0.167883 0.586451
internal_weight=0 11.6999 3.91046
internal_count=133 93 40
shrinkage=0.06


Tree=167
num_leaves=4
num_cat=0
split_feature=10 6 0
split_gain=1.93066 1.05323 0.0364622
threshold=0.91500000000000015 1.4950000000000003 13.680000000000001
decision_type=2 2 2
left_child=1 -1 -2
right_child=2 -3 -4
leaf_value=0.030941882883461395 -0.033974693369786521 -0.031700091059602226 -0.019298469107545582
leaf_weight=5.7854582667350769 3.3846271652728319 1.159995663911104 0.7432461641728878
leaf_count=30 55 22 26
internal_value=0 0.341329 -0.522203
internal_weight=0 6.94545 4.12787
internal_count=133 52 81
shrinkage=0.06


Tree=168
num_leaves=3
num_cat=0
split_feature=12 12
split_gain=1.45951 0.565879
threshold=1000.0000000000001 666.00000000000011
decision_type=2 2
left_child=1 -1
right_child=-2 -3
leaf_value=-0.032228324572117981 0.031895215428210527 -0.0012498608695119841
leaf_weight=3.9854127094149572 3.180898044258357 4.5420642793178558
leaf_count=62 35 36
internal_value=0 -0.262133
internal_weight=0 8.52748
internal_count=133 98
shrinkage=0.06


Tree=169
num_leaves=4
num_cat=0
split_feature=9 12 12
split_gain=1.58441 0.816556 0.00872075
threshold=3.4600000000000004 737.50000000000011 491.50000000000006
decision_type=2 2 2
left_child=2 -2 -1
right_child=1 -3 -4
leaf_value=0.031346241944693015 0.0018856987303219378 -0.031883344558021463 0.037334309537417516
leaf_weight=1.3946813233196746 7.3904528841376287 3.9585697092115879 2.3522528856992722
leaf_count=20 38 55 20
internal_value=0 -0.164884 0.585091
internal_weight=0 11.349 3.74693
internal_count=133 93 40
shrinkage=0.06


Tree=170
num_leaves=3
num_cat=0
split_feature=10 1
split_gain=1.84567 0.460333
threshold=0.81500000000000006 2.0650000000000004
decision_type=2 2
left_child=-1 -2
right_child=1 -3
leaf_value=0.028965117669427987 -0.033549151362103687 0.0015080826702026429
leaf_weight=4.7814527321606874 3.8222727598622441 2.0833610817790031
leaf_count=32 78 23
internal_value=0 -0.35303
internal_weight=0 5.90563
internal_count=133 101
shrinkage=0.06


Tree=171
num_leaves=4
num_cat=0
split_feature=12 5 9
split_gain=1.37929 0.964572 0.00108719
threshold=666.00000000000011 2.3800000000000003 4.3800000000000017
decision_type=2 2 2
left_child=2 -2 -1
right_child=1 -3 -4
leaf_value=-0.030989638538394256 -0.026977144539037365 0.024007350276342983 -0.033037697581462383
leaf_weight=1.6136524230241778 1.741877034306526 5.7310600206255913 2.2124212868511677
leaf_count=38 20 51 24
internal_value=0 0.202055 -0.536232
internal_weight=0 7.47294 3.82607
internal_count=133 71 62
shrinkage=0.06


Tree=172
num_leaves=4
num_cat=0
split_feature=9 12 12
split_gain=1.50256 0.7764 0.0077445
threshold=3.4600000000000004 737.50000000000011 491.50000000000006
decision_type=2 2 2
left_child=2 -2 -1
right_child=1 -3 -4
leaf_value=0.031281085944897279 0.001722442200684976 -0.031810768222224783 0.037050972971613388
leaf_weight=1.3279051855206501 7.2753904573619348 3.7755541019141674 2.2674235068261623
leaf_count=20 38 55 20
internal_value=0 -0.162236 0.581999
internal_weight=0 11.0509 3.59533
internal_count=133 93 40
shrinkage=0.06


Tree=173
num_leaves=3
num_cat=0
split_feature=6 12
split_gain=1.77935 0.000308087
threshold=1.2750000000000001 737.50000000000011
decision_type=2 2
left_child=-1 -2
right_child=1 -3
leaf_value=0.020282645196170158 -0.031610839972676739 -0.030484384532666855
leaf_weight=6.5867744609713554 2.4589741332456474 1.3561231652274726
leaf_count=34 49 50
internal_value=0 -0.520174
internal_weight=0 3.8151
internal_count=133 99
shrinkage=0.06


Tree=174
num_leaves=3
num_cat=0
split_feature=12 12
split_gain=1.30605 0.522577
threshold=1000.0000000000001 666.00000000000011
decision_type=2 2
left_child=1 -1
right_child=-2 -3
leaf_value=-0.032120054599009358 0.031696980770223378 -0.0013431937829068736
leaf_weight=3.6759054688736796 2.86915273219347 4.3205055184662342
leaf_count=62 35 36
internal_value=0 -0.258186
internal_weight=0 7.99641
internal_count=133 98
shrinkage=0.06


Tree=175
num_leaves=4
num_cat=0
split_feature=9 6 5
split_gain=1.45709 0.579864 0.18633
threshold=3.9450000000000007 1.2750000000000001 2.3800000000000003
decision_type=2 2 2
left_child=2 -2 -1
right_child=1 -3 -4
leaf_value=0.035480306040723809 -0.032817431603121283 -0.0010849864663415195 0.013829461993008163
leaf_weight=2.8663504291325816 3.5898583121597749 4.9066317155957222 2.857620794326067
leaf_count=28 30 52 23
internal_value=0 -0.241538 0.41119
internal_weight=0 8.49649 5.72397
internal_count=133 82 51
shrinkage=0.06


Tree=176
num_leaves=4
num_cat=0
split_feature=10 6 0
split_gain=1.72297 0.937742 0.0360555
threshold=0.91500000000000015 1.4950000000000003 13.680000000000001
decision_type=2 2 2
left_child=1 -1 -2
right_child=2 -3 -4
leaf_value=0.030546448801154712 -0.033731757689924723 -0.031603828648476204 -0.018204445212195827
leaf_weight=5.3404512703418732 3.064510802738369 1.0449917055666444 0.65310733392834652
leaf_count=30 55 22 26
internal_value=0 0.33959 -0.516732
internal_weight=0 6.38544 3.71762
internal_count=133 52 81
shrinkage=0.06


Tree=177
num_leaves=4
num_cat=0
split_feature=12 5 9
split_gain=1.25852 0.880952 0.000942317
threshold=666.00000000000011 2.3800000000000003 4.3800000000000017
decision_type=2 2 2
left_child=2 -2 -1
right_child=1 -3 -4
leaf_value=-0.030901722736812243 -0.026741857476892412 0.023494922752641013 -0.032892798060310487
leaf_weight=1.4562895651906731 1.6371941007673738 5.4062547385692596 2.0749024823307991
leaf_count=38 20 51 24
internal_value=0 0.196963 -0.534528
internal_weight=0 7.04345 3.53119
internal_count=133 71 62
shrinkage=0.06


Tree=178
num_leaves=3
num_cat=0
split_feature=12 9
split_gain=1.38425 1.44454
threshold=517.50000000000011 3.9450000000000007
decision_type=2 2
left_child=-1 -2
right_child=1 -3
leaf_value=0.029820428698491688 0.018866659077527326 -0.02940703914370198
leaf_weight=4.2256158236414203 3.5561822038143855 5.9911090228706598
leaf_count=35 25 73
internal_value=0 -0.190434
internal_weight=0 9.54729
internal_count=133 98
shrinkage=0.06


Tree=179
num_leaves=3
num_cat=0
split_feature=6 8
split_gain=1.62696 0.36619
threshold=0.97000000000000008 1.3550000000000002
decision_type=2 2
left_child=-1 -2
right_child=1 -3
leaf_value=0.027969263724347229 0.0010557708354836659 -0.032588911753693162
leaf_weight=4.4619535878300667 1.7492526723071931 3.4844140354543924
leaf_count=27 20 86
internal_value=0 -0.35573
internal_weight=0 5.23367
internal_count=133 106
shrinkage=0.06


Tree=180
num_leaves=4
num_cat=0
split_feature=12 5 9
split_gain=1.19079 0.82367 0.000816113
threshold=666.00000000000011 2.3800000000000003 4.3800000000000017
decision_type=2 2 2
left_child=2 -2 -1
right_child=1 -3 -4
leaf_value=-0.030854622480611594 -0.026447252575603288 0.023073522242160725 -0.032753094445469415
leaf_weight=1.3820729134604337 1.5722437649965284 5.2358211651444435 1.9872917011380191
leaf_count=38 20 51 24
internal_value=0 0.193955 -0.532906
internal_weight=0 6.80806 3.36936
internal_count=133 71 62
shrinkage=0.06


Tree=181
num_leaves=4
num_cat=0
split_feature=9 12 12
split_gain=1.34624 0.700211 0.00703679
threshold=3.4600000000000004 737.50000000000011 491.50000000000006
decision_type=2 2 2
left_child=2 -2 -1
right_child=1 -3 -4
leaf_value=0.031085289753929688 0.0017358461111005336 -0.031710440981558827 0.036952051744470242
leaf_weight=1.1307963728904735 6.669083543121813 3.4033201932907104 2.1081256736069918
leaf_count=20 38 55 20
internal_value=0 -0.15942 0.58173
internal_weight=0 10.0724 3.23892
internal_count=133 93 40
shrinkage=0.06


Tree=182
num_leaves=4
num_cat=0
split_feature=10 6 0
split_gain=1.56042 0.907762 0.128173
threshold=0.89800000000000013 1.4950000000000003 13.600000000000001
decision_type=2 2 2
left_child=1 -1 -2
right_child=2 -3 -4
leaf_value=0.033290115899174057 -0.03362077201149042 -0.031513382241938059 -0.0077940904095042075
leaf_weight=4.4902642145752907 3.004500057548285 0.941306765191257 0.89869192428886879
leaf_count=28 54 21 30
internal_value=0 0.367658 -0.461238
internal_weight=0 5.43157 3.90319
internal_count=133 49 84
shrinkage=0.06


Tree=183
num_leaves=3
num_cat=0
split_feature=12 12
split_gain=1.13535 0.464076
threshold=1000.0000000000001 666.00000000000011
decision_type=2 2
left_child=1 -1
right_child=-2 -3
leaf_value=-0.031927122633953066 0.031523898638918212 -0.0013593602367036072
leaf_weight=3.2326724184677005 2.5524631664156914 4.0008535888046026
leaf_count=62 35 36
internal_value=0 -0.250336
internal_weight=0 7.23353
internal_count=133 98
shrinkage=0.06


Tree=184
num_leaves=4
num_cat=0
split_feature=9 1 12
split_gain=1.27712 0.674976 0.00651273
threshold=3.4600000000000004 1.6450000000000002 491.50000000000006
decision_type=2 2 2
left_child=2 -2 -1
right_child=1 -3 -4
leaf_value=0.031021753342705936 0.013540814375473822 -0.020244286876546669 0.036811362442653539
leaf_weight=1.0671616345644008 3.1350889541208726 6.6325316280126572 2.0300656296312809
leaf_count=20 22 71 20
internal_value=0 -0.156673 0.580276
internal_weight=0 9.76762 3.09723
internal_count=133 93 40
shrinkage=0.06


Tree=185
num_leaves=4
num_cat=0
split_feature=10 6 0
split_gain=1.49329 0.806245 0.0336526
threshold=0.91500000000000015 1.4950000000000003 13.680000000000001
decision_type=2 2 2
left_child=1 -1 -2
right_child=2 -3 -4
leaf_value=0.030021956213917629 -0.033318185478815127 -0.031439379940905857 -0.017470637492946292
leaf_weight=4.752620555460453 2.7454691603779797 0.91653954703360785 0.58521235734224308
leaf_count=30 55 22 26
internal_value=0 0.334757 -0.508895
internal_weight=0 5.66916 3.33068
internal_count=133 52 81
shrinkage=0.06


Tree=186
num_leaves=4
num_cat=0
split_feature=12 5 9
split_gain=1.08097 0.75383 0.000699591
threshold=666.00000000000011 2.3800000000000003 4.3800000000000017
decision_type=2 2 2
left_child=2 -2 -1
right_child=1 -3 -4
leaf_value=-0.030789614875594618 -0.026315516364603879 0.022595326069600789 -0.032627164164760809
leaf_weight=1.2484104996547105 1.4753960724920032 4.9082147888839245 1.8529454264789817
leaf_count=38 20 51 24
internal_value=0 0.188182 -0.531458
internal_weight=0 6.38361 3.10136
internal_count=133 71 62
shrinkage=0.06


Tree=187
num_leaves=4
num_cat=0
split_feature=9 4 12
split_gain=1.21234 0.657209 0.0058998
threshold=3.4600000000000004 94.500000000000014 491.50000000000006
decision_type=2 2 2
left_child=2 -2 -1
right_child=1 -3 -4
leaf_value=0.030960887062296598 0.009595316263759748 -0.022479689687544432 0.03661339028588869
leaf_weight=1.0062138177454483 3.9126999415457231 5.5784889403730631 1.9588614050298929
leaf_count=20 26 67 20
internal_value=0 -0.154282 0.578253
internal_weight=0 9.49119 2.96508
internal_count=133 93 40
shrinkage=0.06


Tree=188
num_leaves=4
num_cat=0
split_feature=10 6 0
split_gain=1.4186 0.82582 0.124203
threshold=0.89800000000000013 1.4950000000000003 13.600000000000001
decision_type=2 2 2
left_child=1 -1 -2
right_child=2 -3 -4
leaf_value=0.033018618035339141 -0.033334644336742991 -0.031446747290526975 -0.0071642079959306848
leaf_weight=4.1753341779112816 2.7839936977252369 0.86328714247792959 0.85284309461712815
leaf_count=28 54 21 30
internal_value=0 0.366225 -0.453294
internal_weight=0 5.03862 3.63684
internal_count=133 49 84
shrinkage=0.06


Tree=189
num_leaves=3
num_cat=0
split_feature=12 12
split_gain=1.03989 0.430467
threshold=1000.0000000000001 666.00000000000011
decision_type=2 2
left_child=1 -1
right_child=-2 -3
leaf_value=-0.031858538967949858 0.031413639477800723 -0.001397938667567863
leaf_weight=2.9787180470302701 2.3668601810932159 3.8020006818696856
leaf_count=62 35 36
internal_value=0 -0.246317
internal_weight=0 6.78072
internal_count=133 98
shrinkage=0.06


Tree=190
num_leaves=4
num_cat=0
split_feature=9 12 12
split_gain=1.15129 0.632653 0.00548015
threshold=3.4600000000000004 737.50000000000011 491.50000000000006
decision_type=2 2 2
left_child=2 -2 -1
right_child=1 -3 -4
leaf_value=0.030904845021011325 0.0019257690237410917 -0.031537160027293336 0.036493932157525978
leaf_weight=0.94938980601728085 6.1730092912912351 3.0334395822137594 1.8865197431296108
leaf_count=20 38 55 20
internal_value=0 -0.151666 0.577047
internal_weight=0 9.20645 2.83591
internal_count=133 93 40
shrinkage=0.06


Tree=191
num_leaves=4
num_cat=0
split_feature=10 6 0
split_gain=1.35674 0.731652 0.0331942
threshold=0.91500000000000015 1.4950000000000003 13.680000000000001
decision_type=2 2 2
left_child=1 -1 -2
right_child=2 -3 -4
leaf_value=0.029716912212599235 -0.033041330179832719 -0.031372117242758679 -0.016811121772469677
leaf_weight=4.4110140055418015 2.5418646559119229 0.84024376329034545 0.55219497997313727
leaf_count=30 55 22 26
internal_value=0 0.33237 -0.502412
internal_weight=0 5.25126 3.09406
internal_count=133 52 81
shrinkage=0.06


Tree=192
num_leaves=4
num_cat=0
split_feature=12 5 9
split_gain=0.980916 0.686081 0.000609192
threshold=666.00000000000011 2.3800000000000003 4.3800000000000017
decision_type=2 2 2
left_child=2 -2 -1
right_child=1 -3 -4
leaf_value=-0.030730528017341528 -0.026160950491532324 0.022085682960690137 -0.032522645025951903
leaf_weight=1.127393417991698 1.3803662750869987 4.5871654413640499 1.7317395973950622
leaf_count=38 20 51 24
internal_value=0 0.182094 -0.530266
internal_weight=0 5.96753 2.85913
internal_count=133 71 62
shrinkage=0.06


Tree=193
num_leaves=4
num_cat=0
split_feature=9 12 12
split_gain=1.09414 0.601909 0.00497046
threshold=3.4600000000000004 737.50000000000011 491.50000000000006
decision_type=2 2 2
left_child=2 -2 -1
right_child=1 -3 -4
leaf_value=0.030851118874008956 0.0017928603032684042 -0.03148225925907483 0.03631207489900215
leaf_weight=0.89498574286699406 6.0482287555932981 2.8931436203420162 1.8205303512513635
leaf_count=20 38 55 20
internal_value=0 -0.149565 0.575204
internal_weight=0 8.94137 2.71552
internal_count=133 93 40
shrinkage=0.06


Tree=194
num_leaves=3
num_cat=0
split_feature=6 8
split_gain=1.30355 0.305144
threshold=0.97000000000000008 1.3550000000000002
decision_type=2 2
left_child=-1 -2
right_child=1 -3
leaf_value=0.027496484209763597 0.0013724361129206883 -0.032231293247354208
leaf_weight=3.7375388890504837 1.4716755282133815 2.8699213867075741
leaf_count=27 20 86
internal_value=0 -0.347343
internal_weight=0 4.3416
internal_count=133 106
shrinkage=0.06


Tree=195
num_leaves=3
num_cat=0
split_feature=12 12
split_gain=0.934728 0.397099
threshold=1000.0000000000001 666.00000000000011
decision_type=2 2
left_child=1 -1
right_child=-2 -3
leaf_value=-0.031771402005730386 0.031270582580163214 -0.0014923743464342872
leaf_weight=2.7481204345822334 2.1384264007210732 3.6043068105354905
leaf_count=62 35 36
internal_value=0 -0.243189
internal_weight=0 6.35243
internal_count=133 98
shrinkage=0.06


Tree=196
num_leaves=4
num_cat=0
split_feature=9 1 12
split_gain=1.04986 0.574413 0.00474487
